<?xml version="1.0" encoding="UTF-8"?>
<!-- This network was created in GeNIe Academic, which can be used for academic teaching and research purposes only -->
<smile version="1.0" id="Network1" numsamples="10000" discsamples="10000">
	<nodes>
		<cpt id="type_goods">
			<state id="yes" />
			<state id="no" />
			<probabilities>0.5 0.5</probabilities>
		</cpt>
		<cpt id="type_services">
			<state id="yes" />
			<state id="no" />
			<parents>type_goods</parents>
			<probabilities>0.95 0.05 0.05 0.95</probabilities>
		</cpt>
		<cpt id="bus_geo_location_foreign_rural">
			<state id="yes" />
			<state id="no" />
			<probabilities>0.14 0.86</probabilities>
		</cpt>
		<cpt id="bus_geo_location_foreign_urban">
			<state id="yes" />
			<state id="no" />
			<probabilities>0.14 0.86</probabilities>
		</cpt>
		<cpt id="bus_geo_location_domestic_rural">
			<state id="yes" />
			<state id="no" />
			<probabilities>0.14 0.86</probabilities>
		</cpt>
		<cpt id="bus_geo_location_domestic_urban">
			<state id="yes" />
			<state id="no" />
			<probabilities>0.14 0.86</probabilities>
		</cpt>
		<noisymax id="company_size_small">
			<state id="yes" />
			<state id="no" />
			<parents>bus_geo_location_foreign_rural bus_geo_location_foreign_urban bus_geo_location_domestic_rural bus_geo_location_domestic_urban</parents>
			<strengths>0 1 0 1 0 1 0 1</strengths>
			<parameters>0.2 0.8 0 1 0.8 0.2 0 1 0.2 0.8 0 1 0.8 0.2 0 1 0.329755859375 0.670244140625</parameters>
		</noisymax>
		<noisymax id="company_size_medium">
			<state id="yes" />
			<state id="no" />
			<parents>bus_geo_location_foreign_rural bus_geo_location_foreign_urban bus_geo_location_domestic_rural bus_geo_location_domestic_urban</parents>
			<strengths>0 1 0 1 0 1 0 1</strengths>
			<parameters>0.4 0.6 0 1 0.6 0.4 0 1 0.4 0.6 0 1 0.6 0.4 0 1 0.329755859375 0.670244140625</parameters>
		</noisymax>
		<noisymax id="company_size_large">
			<state id="yes" />
			<state id="no" />
			<parents>bus_geo_location_foreign_rural bus_geo_location_foreign_urban bus_geo_location_domestic_rural bus_geo_location_domestic_urban</parents>
			<strengths>0 1 0 1 0 1 0 1</strengths>
			<parameters>0.5 0.5 0 1 0.5 0.5 0 1 0.5 0.5 0 1 0.5 0.5 0 1 0.329755859375 0.670244140625</parameters>
		</noisymax>
		<cpt id="bus_geo_location_domestic">
			<state id="yes" />
			<state id="no" />
			<probabilities>0.14 0.86</probabilities>
		</cpt>
		<cpt id="bus_geo_location_foreign">
			<state id="yes" />
			<state id="no" />
			<probabilities>0.14 0.86</probabilities>
		</cpt>
		<cpt id="product_type">
			<state id="physical_good" />
			<state id="service" />
			<state id="no" />
			<probabilities>0.495 0.495 0.01</probabilities>
		</cpt>
		<cpt id="product_features_has_an_improved_poduction_delivery_process">
			<state id="yes" />
			<state id="no" />
			<probabilities>0.05 0.95</probabilities>
		</cpt>
		<noisymax id="price_level">
			<state id="free" />
			<state id="economy" />
			<state id="market" />
			<state id="high_end" />
			<state id="no" />
			<parents>product_features_has_an_improved_poduction_delivery_process</parents>
			<strengths>0 1</strengths>
			<parameters>0.04999965009938789 0.85 0.04999965009938784 0.04999938767622431 1.312125e-06 0 0 0 0 1 0.2475000000000001 0.257498687875 0.2475 0.2475 1.312125e-06</parameters>
		</noisymax>
		<noisymax id="age_under_12">
			<state id="yes" />
			<state id="no" />
			<parameters>0.14 0.86</parameters>
		</noisymax>
		<noisymax id="age_12_17">
			<state id="yes" />
			<state id="no" />
			<parents>age_under_12</parents>
			<strengths>0 1</strengths>
			<parameters>0.05000000000000004 0.95 0 1 0.14 0.86</parameters>
		</noisymax>
		<noisymax id="age_18_24">
			<state id="yes" />
			<state id="no" />
			<parents>age_12_17 age_under_12</parents>
			<strengths>0 1 0 1</strengths>
			<parameters>0.05000000000000004 0.95 0 1 0.01000000000000001 0.99 0 1 0.14 0.86</parameters>
		</noisymax>
		<noisymax id="age_25_34">
			<state id="yes" />
			<state id="no" />
			<parents>age_18_24 age_under_12 age_12_17</parents>
			<strengths>0 1 0 1 0 1</strengths>
			<parameters>0.05000000000000004 0.95 0 1 0.01000000000000001 0.99 0 1 0.01000000000000001 0.99 0 1 0.14 0.86</parameters>
		</noisymax>
		<noisymax id="age_35_64">
			<state id="yes" />
			<state id="no" />
			<parents>age_25_34 age_under_12 age_18_24 age_12_17</parents>
			<strengths>0 1 0 1 0 1 0 1</strengths>
			<parameters>0.05000000000000004 0.95 0 1 0.01000000000000001 0.99 0 1 0.01000000000000001 0.99 0 1 0.01000000000000001 0.99 0 1 0.14 0.86</parameters>
		</noisymax>
		<noisymax id="age_65_74">
			<state id="yes" />
			<state id="no" />
			<parents>age_35_64 age_25_34 age_18_24 age_12_17 age_under_12</parents>
			<strengths>0 1 0 1 0 1 0 1 0 1</strengths>
			<parameters>0.05000000000000004 0.95 0 1 0.01000000000000001 0.99 0 1 0.01000000000000001 0.99 0 1 0.01000000000000001 0.99 0 1 0.01000000000000001 0.99 0 1 0.14 0.86</parameters>
		</noisymax>
		<noisymax id="age_75_over">
			<state id="yes" />
			<state id="no" />
			<parents>age_65_74 age_35_64 age_25_34 age_18_24 age_12_17 age_under_12</parents>
			<strengths>0 1 0 1 0 1 0 1 0 1 0 1</strengths>
			<parameters>0.05000000000000004 0.95 0 1 0.01000000000000001 0.99 0 1 0.01000000000000001 0.99 0 1 0.01000000000000001 0.99 0 1 0.01000000000000001 0.99 0 1 0.01000000000000001 0.99 0 1 0.14 0.86</parameters>
		</noisymax>
		<noisymax id="education_primary">
			<state id="yes" />
			<state id="no" />
			<parents>age_under_12 age_12_17 age_18_24 age_25_34 age_35_64 age_65_74 age_75_over</parents>
			<strengths>0 1 0 1 0 1 0 1 0 1 0 1 0 1</strengths>
			<parameters>0.09999999999999998 0.9 0 1 0.8 0.2 0 1 0.05000000000000004 0.95 0 1 0.01000000000000001 0.99 0 1 0.01000000000000001 0.99 0 1 0.01000000000000001 0.99 0 1 0.01000000000000001 0.99 0 1 0 1</parameters>
		</noisymax>
		<cpt id="type_municipality">
			<state id="yes" />
			<state id="no" />
			<probabilities>0.1 0.9</probabilities>
		</cpt>
		<noisymax id="channel">
			<state id="direct_sales" />
			<state id="retailers" />
			<state id="wholesalers" />
			<state id="agents" />
			<state id="other" />
			<state id="no" />
			<parents>product_type price_level education_primary type_goods type_services type_municipality</parents>
			<strengths>0 1 2 0 1 2 3 4 0 1 0 1 0 1 0 1</strengths>
			<parameters>0.1585715871430158 0.2537145394288253 0.2695716981431267 0.1585715871430157 0.1585715871430157 0.0009990009990008542 0.2421820603638786 0.2421820603638786 0.1513637877274241 0.2119093028183937 0.1513637877274241 0.0009990009990009652 0 0 0 0 0 1 0.1998001998001998 0.1998001998001998 0.1998001998001999 0.1998001998001998 0.1998001998001998 0.0009990009990008542 0.1998001998001998 0.1998001998001998 0.1998001998001999 0.1998001998001998 0.1998001998001998 0.0009990009990008542 0.1998001998001998 0.1998001998001998 0.1998001998001999 0.1998001998001998 0.1998001998001998 0.0009990009990008542 0.2979476663687189 0.17526333315807 0.17526333315807 0.17526333315807 0.17526333315807 0.0009990009990010762 0 0 0 0 0 1 0.2979476663687189 0.17526333315807 0.17526333315807 0.17526333315807 0.17526333315807 0.0009990009990010762 0 0 0 0 0 1 0.17526333315807 0.17526333315807 0.297947666368719 0.17526333315807 0.17526333315807 0.0009990009990010762 0 0 0 0 0 1 0.1700427232342125 0.1700427232342125 0.1700427232342127 0.3188301060641486 0.1700427232342126 0.0009990009990008542 0 0 0 0 0 1 0.1850001850001849 0.185000185000185 0.185000185000185 0.259000259000259 0.1850001850001851 0.0009990009990009652 0 0 0 0 0 1 0.1998001998001998 0.1998001998001998 0.1998001998001999 0.1998001998001998 0.1998001998001998 0.0009990009990008542</parameters>
		</noisymax>
		<cpt id="geo_location_domestic_rural">
			<state id="yes" />
			<state id="no" />
			<probabilities>0.14 0.86</probabilities>
		</cpt>
		<cpt id="product_features_is_exclusive">
			<state id="yes" />
			<state id="no" />
			<parents>price_level</parents>
			<probabilities>0.01 0.99 0.01 0.99 0.01 0.99 0.8 0.2 0.5 0.5</probabilities>
		</cpt>
		<noisymax id="product_features_is_a_niche">
			<state id="yes" />
			<state id="no" />
			<parents>price_level product_features_is_exclusive</parents>
			<strengths>0 1 2 3 4 0 1</strengths>
			<parameters>0.05000000000000004 0.95 0.05000000000000004 0.95 0.05000000000000004 0.95 0.872412109375 0.127587890625 0 1 0.85 0.15 0 1 0.05000000000000004 0.95</parameters>
		</noisymax>
		<noisymax id="product_features_is_more_eco_friendly">
			<state id="yes" />
			<state id="no" />
			<parents>product_features_is_a_niche</parents>
			<strengths>0 1</strengths>
			<parameters>0.75 0.25 0 1 0.05000000000000004 0.95</parameters>
		</noisymax>
		<noisymax id="direct_sales">
			<state id="own_shop" />
			<state id="market_fairs" />
			<state id="direct_visit" />
			<state id="no" />
			<parents>channel geo_location_domestic_rural product_features_is_more_eco_friendly</parents>
			<strengths>0 1 2 3 4 5 0 1 0 1</strengths>
			<parameters>0.42324432568335 0.4837078007809717 0.09204887253667743 0.0009990009990008542 0.3296703296703297 0.3296703296703297 0.3396603396603397 0.0009990009990008542 0.3296703296703297 0.3296703296703297 0.3396603396603397 0.0009990009990008542 0.3296703296703297 0.3296703296703297 0.3396603396603397 0.0009990009990008542 0.3296703296703297 0.3296703296703297 0.3396603396603397 0.0009990009990008542 0 0 0 1 0.2497502497502497 0.4995004995004996 0.2497502497502498 0.0009990009990008542 0 0 0 1 0.2775002775002775 0.444000444000444 0.2775002775002776 0.0009990009990008542 0 0 0 1 0.3330003330003332 0.333000333000333 0.333000333000333 0.0009990009990008542</parameters>
		</noisymax>
		<noisymax id="education_secondary">
			<state id="yes" />
			<state id="no" />
			<parents>age_under_12 age_12_17 age_18_24 age_25_34 age_35_64 age_65_74 age_75_over education_primary</parents>
			<strengths>0 1 0 1 0 1 0 1 0 1 0 1 0 1 0 1</strengths>
			<parameters>0.01000000000000001 0.99 0 1 0.3 0.7 0 1 0.95 0.05 0 1 0.01000000000000001 0.99 0 1 0.01000000000000001 0.99 0 1 0.01000000000000001 0.99 0 1 0.01000000000000001 0.99 0 1 0.01000000000000001 0.99 0 1 0 1</parameters>
		</noisymax>
		<noisymax id="education_higher">
			<state id="yes" />
			<state id="no" />
			<parents>age_under_12 age_12_17 age_18_24 age_25_34 age_35_64 age_65_74 age_75_over education_primary education_secondary</parents>
			<strengths>0 1 0 1 0 1 0 1 0 1 0 1 0 1 0 1 0 1</strengths>
			<parameters>0.01000000000000001 0.99 0 1 0.01000000000000001 0.99 0 1 0.4 0.6 0 1 0.7 0.3 0 1 0.7 0.3 0 1 0.7 0.3 0 1 0.7 0.3 0 1 0.01000000000000001 0.99 0 1 0.01000000000000001 0.99 0 1 0 1</parameters>
		</noisymax>
		<cpt id="gender_male">
			<state id="yes" />
			<state id="no" />
			<probabilities>0.5 0.5</probabilities>
		</cpt>
		<cpt id="gender_female">
			<state id="yes" />
			<state id="no" />
			<parents>gender_male</parents>
			<probabilities>0.05 0.95 0.95 0.05</probabilities>
		</cpt>
		<cpt id="geo_location_foreign_rural">
			<state id="yes" />
			<state id="no" />
			<probabilities>0.14 0.86</probabilities>
		</cpt>
		<noisymax id="income_low">
			<state id="yes" />
			<state id="no" />
			<parents>education_primary education_secondary education_higher gender_male gender_female geo_location_foreign_rural geo_location_domestic_rural</parents>
			<strengths>0 1 0 1 0 1 0 1 0 1 0 1 0 1</strengths>
			<parameters>0.95 0.05 0 1 0.8 0.2 0 1 0.5 0.5 0 1 0.5 0.5 0 1 0.6 0.4 0 1 0.7 0.3 0 1 0.7 0.3 0 1 0 1</parameters>
		</noisymax>
		<noisymax id="income_medium">
			<state id="yes" />
			<state id="no" />
			<parents>education_primary education_secondary education_higher gender_male gender_female geo_location_domestic_rural geo_location_foreign_rural income_low</parents>
			<strengths>0 1 0 1 0 1 0 1 0 1 0 1 0 1 0 1</strengths>
			<parameters>0.2 0.8 0 1 0.2 0.8 0 1 0.7 0.3 0 1 0.5 0.5 0 1 0.5 0.5 0 1 0.5 0.5 0 1 0.5 0.5 0 1 0.05000000000000004 0.95 0 1 0 1</parameters>
		</noisymax>
		<noisymax id="income_high">
			<state id="yes" />
			<state id="no" />
			<parents>education_primary education_secondary education_higher gender_male gender_female geo_location_domestic_rural geo_location_foreign_rural income_low income_medium</parents>
			<strengths>0 1 0 1 0 1 0 1 0 1 0 1 0 1 0 1 0 1</strengths>
			<parameters>0.05000000000000004 0.95 0 1 0.3 0.7 0 1 0.7 0.3 0 1 0.6 0.4 0 1 0.4 0.6 0 1 0.3 0.7 0 1 0.3 0.7 0 1 0.05000000000000004 0.95 0 1 0.05000000000000004 0.95 0 1 0 1</parameters>
		</noisymax>
		<cpt id="geo_location_transnational">
			<state id="yes" />
			<state id="no" />
			<probabilities>0.14 0.86</probabilities>
		</cpt>
		<noisymax id="own_shop_type">
			<state id="physical" />
			<state id="online" />
			<state id="no" />
			<parents>direct_sales channel age_65_74 income_high geo_location_transnational</parents>
			<strengths>0 1 2 3 0 1 2 3 4 5 0 1 0 1 0 1</strengths>
			<parameters>0.4799 0.52 0.0001 0.53 0.4699 0.0001 0.53 0.4699 0.0001 0 0 1 0.4995004995004996 0.4995004995004996 0.0009990009990008542 0.4995004995004996 0.4995004995004996 0.0009990009990008542 0.4995004995004996 0.4995004995004996 0.0009990009990008542 0.4995004995004996 0.4995004995004996 0.0009990009990008542 0.4995004995004996 0.4995004995004996 0.0009990009990008542 0 0 1 0.629000629000629 0.3700003700003701 0.0009990009990008542 0 0 1 0.3330003330003332 0.666000666000666 0.0009990009990008542 0 0 1 0.2497502497502498 0.7492507492507493 0.0009990009990008542 0 0 1 0.0009980039920159944 0.0009980039920159944 0.998003992015968</parameters>
		</noisymax>
		<noisymax id="store_location">
			<state id="fixed_location" />
			<state id="mobile" />
			<state id="own_website" />
			<state id="platform" />
			<state id="no" />
			<parents>own_shop_type geo_location_domestic_rural geo_location_foreign_rural</parents>
			<strengths>0 1 2 0 1 0 1</strengths>
			<parameters>0.6979062811565306 0.2991026919242274 0.0009970089730807581 0.0009970089730807581 0.0009970089730804155 0.0009970089730807485 0.0009970089730807485 0.7976071784646063 0.1994017946161516 0.0009970089730806375 0 0 0 0 1 0.1998001998001998 0.3996003996003997 0.1998001998001998 0.1998001998001998 0.0009990009990008542 0 0 0 0 1 0.1998001998001998 0.3996003996003997 0.1998001998001998 0.1998001998001998 0.0009990009990008542 0 0 0 0 1 0.2496878901373283 0.2496878901373284 0.2496878901373283 0.2496878901373283 0.001248439450686645</parameters>
		</noisymax>
		<noisymax id="distribution_channels_self_pickup">
			<state id="yes" />
			<state id="no" />
			<parents>own_shop_type</parents>
			<strengths>0 1 2</strengths>
			<parameters>0.95 0.05 0 1 0 1 0 1</parameters>
		</noisymax>
		<noisymax id="distribution_channels_delivery_to_home">
			<state id="yes" />
			<state id="no" />
			<parameters>0.5 0.5</parameters>
		</noisymax>
		<noisymax id="distrubution_channels_courier_service">
			<state id="yes" />
			<state id="no" />
			<parents>own_shop_type store_location</parents>
			<strengths>0 1 2 0 1 2 3 4</strengths>
			<parameters>0.2 0.8 0.9 0.1 0 1 0.5 0.5 0.5 0.5 0.5 0.5 1 0 0 1 0.5 0.5</parameters>
		</noisymax>
		<noisymax id="distribution_channels_own_delivery">
			<state id="yes" />
			<state id="no" />
			<parents>store_location</parents>
			<strengths>0 1 2 3 4</strengths>
			<parameters>0 1 0 1 0.7 0.3 0 1 0 1 0.5 0.5</parameters>
		</noisymax>
		<noisymax id="distribution_channels_to_the_email">
			<state id="yes" />
			<state id="no" />
			<parameters>0.5 0.5</parameters>
		</noisymax>
		<cpt id="geo_location_domestic">
			<state id="yes" />
			<state id="no" />
			<probabilities>0.14 0.86</probabilities>
		</cpt>
		<cpt id="geo_location_foreign_urban">
			<state id="yes" />
			<state id="no" />
			<probabilities>0.14 0.86</probabilities>
		</cpt>
		<cpt id="geo_location_foreign">
			<state id="yes" />
			<state id="no" />
			<probabilities>0.14 0.86</probabilities>
		</cpt>
		<cpt id="geo_location_domestic_urban">
			<state id="yes" />
			<state id="no" />
			<probabilities>0.14 0.86</probabilities>
		</cpt>
		<cpt id="type_international">
			<state id="yes" />
			<state id="no" />
			<probabilities>0.1 0.9</probabilities>
		</cpt>
		<cpt id="type_national">
			<state id="yes" />
			<state id="no" />
			<probabilities>0.4 0.6</probabilities>
		</cpt>
		<cpt id="type_ngo">
			<state id="yes" />
			<state id="no" />
			<probabilities>0.1 0.9</probabilities>
		</cpt>
		<cpt id="income_source_non_time_limited_usage">
			<state id="yes" />
			<state id="no" />
			<probabilities>0.14 0.86</probabilities>
		</cpt>
		<cpt id="income_source_additional_functions">
			<state id="yes" />
			<state id="no" />
			<probabilities>0.14 0.86</probabilities>
		</cpt>
		<cpt id="income_source_paid_plans">
			<state id="yes" />
			<state id="no" />
			<parents>product_type</parents>
			<probabilities>0.14 0.86 0.8 0.2 0.5 0.5</probabilities>
		</cpt>
		<noisymax id="income_source_different_price_for_business">
			<state id="yes" />
			<state id="no" />
			<parents>price_level</parents>
			<strengths>0 1 2 3 4</strengths>
			<parameters>0.14 0.86 0.14 0.86 0.14 0.86 0.9 0.09999999999999998 0 1 0.3174072265625 0.6825927734375</parameters>
		</noisymax>
		<noisymax id="income_source_different_price_for_individuals">
			<state id="yes" />
			<state id="no" />
			<parents>product_type price_level</parents>
			<strengths>0 1 2 0 1 2 3 4</strengths>
			<parameters>0.14 0.86 0.76 0.24 0 1 0.14 0.86 0.14 0.86 0.14 0.86 0.9 0.09999999999999998 0 1 0.3583984375 0.6416015625</parameters>
		</noisymax>
		<cpt id="income_source_fees_come_from_another_product">
			<state id="yes" />
			<state id="no" />
			<parents>price_level</parents>
			<probabilities>0.99 0.01 0.14 0.86 0.14 0.86 0.14 0.86 0.14 0.86</probabilities>
		</cpt>
		<cpt id="income_source_other">
			<state id="yes" />
			<state id="no" />
			<probabilities>0.14 0.86</probabilities>
		</cpt>
		<cpt id="product_features_is_a_fundamentally_new_product_or_serivce">
			<state id="yes" />
			<state id="no" />
			<probabilities>0.05 0.95</probabilities>
		</cpt>
		<cpt id="product_features_is_more_user_friendly">
			<state id="yes" />
			<state id="no" />
			<probabilities>0.05 0.95</probabilities>
		</cpt>
		<noisymax id="product_features_is_more_comfortable_usable">
			<state id="yes" />
			<state id="no" />
			<parents>product_features_is_exclusive product_features_is_more_user_friendly</parents>
			<strengths>0 1 0 1</strengths>
			<parameters>0.7 0.3 0 1 0.8 0.2 0 1 0.05000000000000004 0.95</parameters>
		</noisymax>
		<cpt id="product_features_is_safer_to_use">
			<state id="yes" />
			<state id="no" />
			<probabilities>0.05 0.95</probabilities>
		</cpt>
		<cpt id="product_features_is_more_durable">
			<state id="yes" />
			<state id="no" />
			<probabilities>0.05 0.95</probabilities>
		</cpt>
		<cpt id="product_features_is_more_adaptive_versatile">
			<state id="yes" />
			<state id="no" />
			<probabilities>0.05 0.95</probabilities>
		</cpt>
		<noisymax id="product_features_is_an_improvement_of_an_existing_product_or_service">
			<state id="yes" />
			<state id="no" />
			<parents>product_features_is_more_comfortable_usable product_features_is_safer_to_use product_features_is_more_durable product_features_is_more_adaptive_versatile</parents>
			<strengths>0 1 0 1 0 1 0 1</strengths>
			<parameters>0.8 0.2 0 1 0.85 0.15 0 1 0.8 0.2 0 1 0.8 0.2 0 1 0.05000000000000004 0.95</parameters>
		</noisymax>
		<cpt id="product_features_has_a_different_visual_design">
			<state id="yes" />
			<state id="no" />
			<parents>product_features_is_an_improvement_of_an_existing_product_or_service</parents>
			<probabilities>0.8 0.2 0.05 0.95</probabilities>
		</cpt>
		<cpt id="product_features_aims_to_set_a_trend">
			<state id="yes" />
			<state id="no" />
			<probabilities>0.05 0.95</probabilities>
		</cpt>
		<cpt id="product_features_is_a_different_variant_of_a_current_product">
			<state id="yes" />
			<state id="no" />
			<probabilities>0.05 0.95</probabilities>
		</cpt>
		<noisymax id="product_features_is_the_result_of_r_d">
			<state id="yes" />
			<state id="no" />
			<parents>price_level product_features_is_a_fundamentally_new_product_or_serivce product_features_aims_to_set_a_trend product_features_is_a_different_variant_of_a_current_product</parents>
			<strengths>0 1 2 3 4 0 1 0 1 0 1</strengths>
			<parameters>0.05000000000000004 0.95 0.05000000000000004 0.95 0.05000000000000004 0.95 0.75 0.25 0 1 0.8 0.2 0 1 0.85 0.15 0 1 0.85 0.15 0 1 0.05000000000000004 0.95</parameters>
		</noisymax>
		<noisymax id="product_features_has_a_new_set_of_features">
			<state id="yes" />
			<state id="no" />
			<parents>product_features_has_a_different_visual_design product_features_is_the_result_of_r_d product_features_is_a_different_variant_of_a_current_product</parents>
			<strengths>0 1 0 1 0 1</strengths>
			<parameters>0.73 0.27 0 1 0.8 0.2 0 1 0.85 0.15 0 1 0.05000000000000004 0.95</parameters>
		</noisymax>
		<noisymax id="product_features_is_mote_customisable">
			<state id="yes" />
			<state id="no" />
			<parents>product_features_has_a_new_set_of_features</parents>
			<strengths>0 1</strengths>
			<parameters>0.8 0.2 0 1 0.05000000000000004 0.95</parameters>
		</noisymax>
		<cpt id="num_business_segments">
			<state id="num0" />
			<state id="num1" />
			<state id="num2" />
			<state id="num3" />
			<state id="num4" />
			<state id="num_more" />
			<probabilities>0.1666666666666667 0.1666666666666667 0.1666666666666667 0.1666666666666667 0.1666666666666667 0.1666666666666667</probabilities>
		</cpt>
		<cpt id="num_public_bodies_and_ngo">
			<state id="num0" />
			<state id="num1" />
			<state id="num2" />
			<state id="num3" />
			<state id="num4" />
			<state id="num_more" />
			<probabilities>0.1666666666666667 0.1666666666666667 0.1666666666666667 0.1666666666666667 0.1666666666666667 0.1666666666666667</probabilities>
		</cpt>
		<cpt id="num_consumer_segments">
			<state id="num0" />
			<state id="num1" />
			<state id="num2" />
			<state id="num3" />
			<state id="num4" />
			<state id="num_more" />
			<probabilities>0.1666666666666667 0.1666666666666667 0.1666666666666667 0.1666666666666667 0.1666666666666667 0.1666666666666667</probabilities>
		</cpt>
		<cpt id="num_value_propositions">
			<state id="num1" />
			<state id="num2" />
			<state id="num3" />
			<state id="num4" />
			<state id="num_more" />
			<probabilities>0.2 0.2 0.2 0.2 0.2000000000000001</probabilities>
		</cpt>
		<cpt id="num_channels">
			<state id="num1" />
			<state id="num2" />
			<state id="num3" />
			<state id="num4" />
			<state id="num_more" />
			<parents>num_value_propositions</parents>
			<probabilities>0.5999999999999998 0.09999999999999996 0.09999999999999996 0.09999999999999996 0.1000000000000003 0.09999999999999998 0.5999999999999999 0.09999999999999998 0.09999999999999998 0.1000000000000002 0.09999999999999999 0.09999999999999999 0.6 0.09999999999999999 0.1000000000000001 0.1 0.1 0.1 0.6000000000000001 0.09999999999999987 0.1 0.1 0.1 0.1 0.6</probabilities>
		</cpt>
		<cpt id="keep_customer_relationship_mechanism">
			<state id="word_of_mouth" />
			<state id="ads_and_commercials" />
			<state id="printed_promotional_informative_materials" />
			<state id="other" />
			<probabilities>0.25 0.25 0.25 0.25</probabilities>
		</cpt>
		<cpt id="new_customer_relationship_mechanism">
			<state id="word_of_mouth" />
			<state id="ads_and_commercials" />
			<state id="printed_promotional_informative_materials" />
			<state id="other" />
			<probabilities>0.25 0.25 0.25 0.25</probabilities>
		</cpt>
		<cpt id="spend_more_customer_relationship_mechanism">
			<state id="word_of_mouth" />
			<state id="ads_and_commercials" />
			<state id="printed_promotional_informative_materials" />
			<state id="other" />
			<probabilities>0.25 0.25 0.25 0.25</probabilities>
		</cpt>
		<cpt id="num_convince_existing_to_spend_more">
			<state id="num0" />
			<state id="num1" />
			<state id="num2" />
			<state id="num3" />
			<state id="num4" />
			<state id="num_more" />
			<probabilities>0.1666666666666667 0.1666666666666667 0.1666666666666667 0.1666666666666667 0.1666666666666667 0.1666666666666667</probabilities>
		</cpt>
		<cpt id="num_get_new_customers">
			<state id="num0" />
			<state id="num1" />
			<state id="num2" />
			<state id="num3" />
			<state id="num4" />
			<state id="num_more" />
			<probabilities>0.1666666666666667 0.1666666666666667 0.1666666666666667 0.1666666666666667 0.1666666666666667 0.1666666666666667</probabilities>
		</cpt>
		<cpt id="num_keep_customers">
			<state id="num0" />
			<state id="num1" />
			<state id="num2" />
			<state id="num3" />
			<state id="num4" />
			<state id="num_more" />
			<probabilities>0.1666666666666667 0.1666666666666667 0.1666666666666667 0.1666666666666667 0.1666666666666667 0.1666666666666667</probabilities>
		</cpt>
		<cpt id="fixed_cost_type">
			<state id="rent_of_office" />
			<state id="rent_of_buildings" />
			<state id="rent_of_equipment" />
			<state id="utilities" />
			<state id="outsourcing_of_services" />
			<state id="outsourcing_of_specified_services" />
			<state id="salaries" />
			<state id="permits_and_licences" />
			<state id="marketing" />
			<state id="other" />
			<probabilities>0.1000000001 0.1000000001 0.1000000001 0.1000000001 0.1000000001 0.1000000001 0.1000000001 0.1000000001 0.1000000000999998 0.09999999910000013</probabilities>
		</cpt>
		<noisymax id="fixed_cost_subtype">
			<state id="rent_of_buildings_manufacturing_buildings" />
			<state id="rent_of_buildings_inventory_buildings" />
			<state id="rent_of_buildings_sales_buildings_shops" />
			<state id="rent_of_buildings_other" />
			<state id="rent_of_equipment_it_office_equipment" />
			<state id="rent_of_equipment_production_equipment_and_machinery" />
			<state id="rent_of_equipment_transport" />
			<state id="utilities_electricity" />
			<state id="utilities_water" />
			<state id="utilities_gas" />
			<state id="utilities_heat" />
			<state id="utilities_maintenance" />
			<state id="utilities_communication" />
			<state id="outsourcing_of_services_accountant" />
			<state id="outsourcing_of_services_it_support" />
			<state id="salaries_management" />
			<state id="salaries_factory_workers_service" />
			<state id="salaries_finance_management" />
			<state id="salaries_marketing" />
			<state id="rent_of_equipment_other" />
			<state id="utilities_other" />
			<state id="outsourcing_of_services_other" />
			<state id="outsourcing_of_specified_services_default" />
			<state id="salaries_other" />
			<state id="rent_of_office_default" />
			<state id="permits_and_licences_default" />
			<state id="marketing_default" />
			<state id="other_default" />
			<parents>product_type direct_sales channel own_shop_type distribution_channels_delivery_to_home new_customer_relationship_mechanism keep_customer_relationship_mechanism spend_more_customer_relationship_mechanism fixed_cost_type</parents>
			<strengths>0 1 2 0 1 2 3 0 1 2 3 4 5 0 1 2 0 1 0 1 2 3 0 1 2 3 0 1 2 3 0 1 2 3 4 5 6 7 8 9</strengths>
			<parameters>0.07537688442211056 0.07537688442211056 0.07537688442211056 0.02512562814070353 0.02512562814070353 0.02512562814070353 0.02512562814070353 0.02512562814070353 0.02512562814070353 0.02512562814070353 0.02512562814070353 0.02512562814070353 0.02512562814070353 0.02512562814070353 0.02512562814070353 0.02512562814070353 0.09798994974874384 0.02512562814070353 0.02512562814070353 0.02512562814070353 0.02512562814070355 0.02512562814070353 0.02512562814070353 0.02512562814070353 0.02512562814070353 0.02512562814070353 0.09798994974874381 0.02512562814070342 0.02896871381122869 0.02896871381122869 0.02896871381122869 0.02896871381122869 0.02896871381122869 0.02896871381122869 0.02896871381122869 0.02896871381122869 0.02896871381122869 0.02896871381122869 0.02896871381122869 0.02896871381122869 0.02896871381122869 0.02896871381122869 0.02896871381122869 0.08111239867144053 0.02896871381122874 0.02896871381122874 0.09733487840572867 0.02896871381122874 0.02896871381122874 0.02896871381122874 0.02896871381122878 0.02896871381122878 0.02896871381122878 0.02896871381122878 0.09733487764211331 0.02896871381122882 0 0 0 0 0 0 0 0 0 0 0 0 0 0 0 0 0 0 0 0 0 0 0 0 0 0 0 1 0.02777777777777779 0.02777777777777779 0.02777777777777779 0.02777777777777779 0.02777777777777779 0.02777777777777779 0.02777777777777779 0.02777777777777779 0.02777777777777779 0.02777777777777779 0.02777777777777779 0.02777777777777779 0.02777777777777779 0.02777777777777779 0.02777777777777779 0.02777777777777779 0.2499999999999998 0.02777777777777779 0.02777777777777773 0.02777777777777776 0.02777777777777776 0.02777777777777776 0.02777777777777776 0.02777777777777776 0.02777777777777776 0.02777777777777777 0.02777777777777776 0.02777777777777778 0.0267379679144385 0.0267379679144385 0.0267379679144385 0.0267379679144385 0.0267379679144385 0.0267379679144385 0.1336898395721924 0.0267379679144385 0.0267379679144385 0.0267379679144385 0.0267379679144385 0.0267379679144385 0.0267379679144385 0.0267379679144385 0.0267379679144385 0.0267379679144385 0.0267379679144385 0.0267379679144385 0.0267379679144385 0.0267379679144385 0.0267379679144385 0.0267379679144385 0.0267379679144385 0.0267379679144385 0.0267379679144385 0.0267379679144385 0.1711229946524064 0.02673796791443872 0.03571428571428571 0.03571428571428571 0.03571428571428571 0.03571428571428571 0.03571428571428571 0.03571428571428571 0.03571428571428571 0.03571428571428571 0.03571428571428571 0.03571428571428571 0.03571428571428571 0.03571428571428571 0.03571428571428571 0.03571428571428593 0.03571428571428571 0.03571428571428571 0.03571428571428571 0.03571428571428571 0.03571428571428571 0.03571428571428571 0.03571428571428571 0.03571428571428568 0.03571428571428571 0.03571428571428574 0.03571428571428575 0.03571428571428575 0.03571428571428575 0.03571428571428575 0 0 0 0 0 0 0 0 0 0 0 0 0 0 0 0 0 0 0 0 0 0 0 0 0 0 0 1 0.0357142857142858 0.03571428571428569 0.03571428571428569 0.03571428571428569 0.03571428571428569 0.03571428571428569 0.03571428571428569 0.03571428571428569 0.03571428571428569 0.03571428571428569 0.03571428571428569 0.03571428571428569 0.03571428571428569 0.03571428571428591 0.03571428571428574 0.03571428571428569 0.03571428571428569 0.03571428571428569 0.03571428571428569 0.03571428571428569 0.03571428571428569 0.03571428571428569 0.03571428571428569 0.03571428571428573 0.03571428571428576 0.03571428571428574 0.03571428571428575 0.03571428571428575 0.02857142857142858 0.02857142857142858 0.02857142857142858 0.02857142857142858 0.02857142857142858 0.02857142857142858 0.02857142857142858 0.02857142857142858 0.02857142857142858 0.02857142857142858 0.02857142857142858 0.02857142857142858 0.02857142857142858 0.02857142857142858 0.02857142857142858 0.2285714285714284 0.02857142857142858 0.02857142857142858 0.02857142857142858 0.02857142857142855 0.02857142857142855 0.02857142857142855 0.02857142857142855 0.02857142857142855 0.02857142857142855 0.02857142857142855 0.02857142857142856 0.02857142857142857 0.02857142857142858 0.02857142857142858 0.02857142857142858 0.02857142857142858 0.02857142857142858 0.02857142857142858 0.02857142857142858 0.02857142857142858 0.02857142857142858 0.02857142857142858 0.02857142857142858 0.02857142857142858 0.02857142857142858 0.02857142857142858 0.02857142857142858 0.2285714285714284 0.02857142857142858 0.02857142857142858 0.02857142857142858 0.02857142857142855 0.02857142857142855 0.02857142857142855 0.02857142857142855 0.02857142857142855 0.02857142857142855 0.02857142857142856 0.02857142857142855 0.02857142857142857 0.0357142857142858 0.03571428571428569 0.03571428571428569 0.03571428571428569 0.03571428571428569 0.03571428571428569 0.03571428571428569 0.03571428571428569 0.03571428571428569 0.03571428571428569 0.03571428571428569 0.03571428571428569 0.03571428571428569 0.03571428571428591 0.03571428571428574 0.03571428571428569 0.03571428571428569 0.03571428571428569 0.03571428571428569 0.03571428571428569 0.03571428571428569 0.03571428571428569 0.03571428571428569 0.03571428571428573 0.03571428571428576 0.03571428571428574 0.03571428571428575 0.03571428571428575 0.0357142857142858 0.03571428571428569 0.03571428571428569 0.03571428571428569 0.03571428571428569 0.03571428571428569 0.03571428571428569 0.03571428571428569 0.03571428571428569 0.03571428571428569 0.03571428571428569 0.03571428571428569 0.03571428571428569 0.03571428571428591 0.03571428571428574 0.03571428571428569 0.03571428571428569 0.03571428571428569 0.03571428571428569 0.03571428571428569 0.03571428571428569 0.03571428571428569 0.03571428571428569 0.03571428571428573 0.03571428571428576 0.03571428571428574 0.03571428571428575 0.03571428571428575 0 0 0 0 0 0 0 0 0 0 0 0 0 0 0 0 0 0 0 0 0 0 0 0 0 0 0 1 0.03571428571428571 0.03571428571428571 0.03571428571428571 0.03571428571428571 0.03571428571428571 0.03571428571428571 0.03571428571428571 0.03571428571428571 0.03571428571428571 0.03571428571428571 0.03571428571428571 0.03571428571428571 0.03571428571428571 0.03571428571428587 0.03571428571428571 0.03571428571428571 0.03571428571428571 0.03571428571428571 0.03571428571428571 0.03571428571428571 0.03571428571428571 0.03571428571428568 0.03571428571428571 0.03571428571428571 0.03571428571428576 0.03571428571428575 0.03571428571428576 0.03571428571428576 0.02777777777777779 0.02777777777777779 0.02777777777777779 0.02777777777777779 0.02777777777777779 0.02777777777777779 0.02777777777777779 0.02777777777777779 0.02777777777777779 0.02777777777777779 0.02777777777777779 0.02777777777777779 0.02777777777777779 0.02777777777777779 0.02777777777777779 0.02777777777777779 0.02777777777777779 0.02777777777777779 0.02777777777777773 0.02777777777777779 0.02777777777777779 0.02777777777777779 0.02777777777777779 0.02777777777777779 0.02777777777777779 0.2499999999999999 0.02777777777777778 0.02777777777777779 0 0 0 0 0 0 0 0 0 0 0 0 0 0 0 0 0 0 0 0 0 0 0 0 0 0 0 1 0.03125 0.03125 0.03125 0.03125 0.03125 0.03125 0.1562499999999999 0.03125 0.03125 0.03125 0.03125 0.03125 0.03124999999999994 0.03125 0.03125 0.03125 0.03125 0.03125 0.03125 0.03125 0.03124999999999997 0.03124999999999997 0.03124999999999997 0.03124999999999997 0.03124999999999997 0.03124999999999999 0.03124999999999999 0.03125000000000022 0 0 0 0 0 0 0 0 0 0 0 0 0 0 0 0 0 0 0 0 0 0 0 0 0 0 0 1 0.03571428571428571 0.03571428571428571 0.03571428571428571 0.03571428571428571 0.03571428571428571 0.03571428571428571 0.03571428571428571 0.03571428571428571 0.03571428571428571 0.03571428571428571 0.03571428571428571 0.03571428571428571 0.03571428571428571 0.03571428571428587 0.03571428571428571 0.03571428571428571 0.03571428571428571 0.03571428571428571 0.03571428571428571 0.03571428571428571 0.03571428571428571 0.03571428571428571 0.03571428571428571 0.03571428571428571 0.03571428571428575 0.03571428571428575 0.03571428571428575 0.03571428571428575 0.02325581395348841 0.02325581395348841 0.02325581395348841 0.02325581395348841 0.02325581395348841 0.02325581395348841 0.02325581395348841 0.02325581395348841 0.02325581395348841 0.02325581395348841 0.02325581395348841 0.02325581395348841 0.02325581395348841 0.02325581395348841 0.02325581395348841 0.02325581395348841 0.02325581395348841 0.02325581395348841 0.1860465116279066 0.02325581395348836 0.02325581395348836 0.02325581395348836 0.02325581395348836 0.02325581395348836 0.02325581395348836 0.02325581395348833 0.2093023255813951 0.02325581395348838 0.02777777777777769 0.0277777777777778 0.0277777777777778 0.0277777777777778 0.0277777777777778 0.0277777777777778 0.0277777777777778 0.0277777777777778 0.0277777777777778 0.0277777777777778 0.0277777777777778 0.0277777777777778 0.0277777777777778 0.0277777777777778 0.0277777777777778 0.0277777777777778 0.0277777777777778 0.02777777777777774 0.0277777777777778 0.0277777777777778 0.0277777777777778 0.0277777777777778 0.0277777777777778 0.0277777777777778 0.0277777777777778 0.0277777777777778 0.2499999999999999 0.02777777777777769 0 0 0 0 0 0 0 0 0 0 0 0 0 0 0 0 0 0 0 0 0 0 0 0 0 0 0 1 0.03571428571428571 0.03571428571428571 0.03571428571428571 0.03571428571428571 0.03571428571428571 0.03571428571428571 0.03571428571428571 0.03571428571428571 0.03571428571428571 0.03571428571428571 0.03571428571428571 0.03571428571428571 0.03571428571428571 0.03571428571428582 0.03571428571428571 0.03571428571428571 0.03571428571428571 0.03571428571428571 0.03571428571428571 0.03571428571428571 0.03571428571428571 0.03571428571428571 0.03571428571428571 0.03571428571428571 0.03571428571428575 0.03571428571428575 0.03571428571428575 0.03571428571428575 0.0232558139534884 0.0232558139534884 0.0232558139534884 0.0232558139534884 0.0232558139534884 0.0232558139534884 0.0232558139534884 0.0232558139534884 0.0232558139534884 0.0232558139534884 0.0232558139534884 0.0232558139534884 0.0232558139534884 0.0232558139534884 0.0232558139534884 0.0232558139534884 0.0232558139534884 0.0232558139534884 0.1860465116279067 0.02325581395348835 0.02325581395348835 0.02325581395348835 0.02325581395348835 0.02325581395348835 0.02325581395348835 0.02325581395348829 0.2093023255813949 0.02325581395348837 0.02777777777777769 0.0277777777777778 0.0277777777777778 0.0277777777777778 0.0277777777777778 0.0277777777777778 0.0277777777777778 0.0277777777777778 0.0277777777777778 0.0277777777777778 0.0277777777777778 0.0277777777777778 0.0277777777777778 0.0277777777777778 0.0277777777777778 0.0277777777777778 0.0277777777777778 0.02777777777777774 0.0277777777777778 0.0277777777777778 0.0277777777777778 0.0277777777777778 0.0277777777777778 0.0277777777777778 0.0277777777777778 0.0277777777777778 0.2499999999999999 0.0277777777777777 0 0 0 0 0 0 0 0 0 0 0 0 0 0 0 0 0 0 0 0 0 0 0 0 0 0 0 1 0.03571428571428571 0.03571428571428571 0.03571428571428571 0.03571428571428571 0.03571428571428571 0.03571428571428571 0.03571428571428571 0.03571428571428571 0.03571428571428571 0.03571428571428571 0.03571428571428571 0.03571428571428571 0.03571428571428571 0.03571428571428576 0.03571428571428571 0.03571428571428571 0.03571428571428571 0.03571428571428571 0.03571428571428571 0.03571428571428571 0.03571428571428571 0.03571428571428571 0.03571428571428571 0.03571428571428571 0.03571428571428573 0.03571428571428573 0.03571428571428573 0.03571428571428573 0.02325581395348841 0.02325581395348841 0.02325581395348841 0.02325581395348841 0.02325581395348841 0.02325581395348841 0.02325581395348841 0.02325581395348841 0.02325581395348841 0.02325581395348841 0.02325581395348841 0.02325581395348841 0.02325581395348841 0.02325581395348841 0.02325581395348841 0.02325581395348841 0.02325581395348841 0.02325581395348841 0.1860465116279067 0.02325581395348836 0.02325581395348836 0.02325581395348836 0.02325581395348836 0.02325581395348836 0.02325581395348836 0.02325581395348833 0.2093023255813949 0.02325581395348838 0.02777777777777769 0.0277777777777778 0.0277777777777778 0.0277777777777778 0.0277777777777778 0.0277777777777778 0.0277777777777778 0.0277777777777778 0.0277777777777778 0.0277777777777778 0.0277777777777778 0.0277777777777778 0.0277777777777778 0.0277777777777778 0.0277777777777778 0.0277777777777778 0.0277777777777778 0.02777777777777769 0.0277777777777778 0.0277777777777778 0.0277777777777778 0.0277777777777778 0.0277777777777778 0.0277777777777778 0.0277777777777778 0.0277777777777778 0.2499999999999999 0.0277777777777777 0 0 0 0 0 0 0 0 0 0 0 0 0 0 0 0 0 0 0 0 0 0 0 0 0 0 0 1 0.03571428571428571 0.03571428571428571 0.03571428571428571 0.03571428571428571 0.03571428571428571 0.03571428571428571 0.03571428571428571 0.03571428571428571 0.03571428571428571 0.03571428571428571 0.03571428571428571 0.03571428571428571 0.03571428571428571 0.03571428571428571 0.03571428571428571 0.03571428571428571 0.03571428571428571 0.03571428571428571 0.03571428571428571 0.03571428571428571 0.03571428571428571 0.03571428571428571 0.03571428571428571 0.03571428571428571 0.03571428571428571 0.03571428571428571 0.03571428571428571 0.03571428571428571 0.03571428571428571 0.03571428571428571 0.03571428571428571 0.03571428571428571 0.03571428571428571 0.03571428571428571 0.03571428571428571 0.03571428571428571 0.03571428571428571 0.03571428571428571 0.03571428571428571 0.03571428571428571 0.03571428571428571 0.03571428571428571 0.03571428571428571 0.03571428571428571 0.03571428571428571 0.03571428571428571 0.03571428571428571 0.03571428571428571 0.03571428571428571 0.03571428571428571 0.03571428571428571 0.03571428571428571 0.03571428571428571 0.03571428571428571 0.03571428571428571 0.03571428571428571 0.03571428571428571 0.03571428571428571 0.03571428571428571 0.03571428571428571 0.03571428571428571 0.03571428571428571 0.03571428571428571 0.03571428571428571 0.03571428571428571 0.03571428571428571 0.03571428571428571 0.03571428571428571 0.03571428571428571 0.03571428571428571 0.03571428571428571 0.03571428571428571 0.03571428571428571 0.03571428571428571 0.03571428571428571 0.03571428571428571 0.03571428571428571 0.03571428571428571 0.03571428571428571 0.03571428571428571 0.03571428571428571 0.03571428571428571 0.03571428571428571 0.03571428571428571 0.03571428571428571 0.03571428571428571 0.03571428571428571 0.03571428571428571 0.03571428571428571 0.03571428571428571 0.03571428571428571 0.03571428571428571 0.03571428571428571 0.03571428571428571 0.03571428571428571 0.03571428571428571 0.03571428571428571 0.03571428571428571 0.03571428571428571 0.03571428571428571 0.03571428571428571 0.03571428571428571 0.03571428571428571 0.03571428571428571 0.03571428571428571 0.03571428571428571 0.03571428571428571 0.03571428571428571 0.03571428571428571 0.03571428571428571 0.03571428571428571 0.03571428571428571 0.03571428571428571 0.03571428571428571 0.03571428571428571 0.03571428571428571 0.03571428571428571 0.03571428571428571 0.03571428571428571 0.03571428571428571 0.03571428571428571 0.03571428571428571 0.03571428571428571 0.03571428571428571 0.03571428571428571 0.03571428571428571 0.03571428571428571 0.03571428571428571 0.03571428571428571 0.03571428571428571 0.03571428571428571 0.03571428571428571 0.03571428571428571 0.03571428571428571 0.03571428571428571 0.03571428571428571 0.03571428571428571 0.03571428571428571 0.03571428571428571 0.03571428571428571 0.03571428571428571 0.03571428571428571 0.03571428571428571 0.03571428571428571 0.03571428571428571 0.03571428571428571 0.03571428571428571 0.03571428571428571 0.03571428571428571 0.03571428571428571 0.03571428571428571 0.03571428571428571 0.03571428571428571 0.03571428571428571 0.03571428571428571 0.03571428571428571 0.03571428571428571 0.03571428571428571 0.03571428571428571 0.03571428571428571 0.03571428571428571 0.03571428571428571 0.03571428571428571 0.03571428571428571 0.03571428571428571 0.03571428571428571 0.03571428571428571 0.03571428571428571 0.03571428571428571 0.03571428571428571 0.03571428571428571 0.03571428571428571 0.03571428571428571 0.03571428571428571 0.03571428571428571 0.03571428571428571 0.03571428571428571 0.03571428571428571 0.03571428571428571 0.03571428571428571 0.03571428571428571 0.03571428571428571 0.03571428571428571 0.03571428571428571 0.03571428571428571 0.03571428571428571 0.03571428571428571 0.03571428571428571 0.03571428571428571 0.03571428571428571 0.03571428571428571 0.03571428571428571 0.03571428571428571 0.03571428571428571 0.03571428571428571 0.03571428571428571 0.03571428571428571 0.03571428571428571 0.03571428571428571 0.03571428571428571 0.03571428571428571 0.03571428571428571 0.03571428571428571 0.03571428571428571 0.03571428571428571 0.03571428571428571 0.03571428571428571 0.03571428571428571 0.03571428571428571 0.03571428571428571 0.03571428571428571 0.03571428571428571 0.03571428571428571 0.03571428571428571 0.03571428571428571 0.03571428571428571 0.03571428571428571 0.03571428571428571 0.03571428571428571 0.03571428571428571 0.03571428571428571 0.03571428571428571 0.03571428571428571 0.03571428571428571 0.03571428571428571 0.03571428571428571 0.03571428571428571 0.03571428571428571 0.03571428571428571 0.03571428571428571 0.03571428571428571 0.03571428571428571 0.03571428571428571 0.03571428571428571 0.03571428571428571 0.03571428571428571 0.03571428571428571 0.03571428571428571 0.03571428571428571 0.03571428571428571 0.03571428571428571 0.03571428571428571 0.03571428571428571 0.03571428571428571 0.03571428571428571 0.03571428571428571 0.03571428571428571 0.03571428571428571 0.03571428571428571 0.03571428571428571 0.03571428571428571 0.03571428571428571 0 0 0 0 0 0 0 0 0 0 0 0 0 0 0 0 0 0 0 0 0 0 0 0 0 0 0 1 0.03571428571428571 0.03571428571428571 0.03571428571428571 0.03571428571428571 0.03571428571428571 0.03571428571428571 0.03571428571428571 0.03571428571428571 0.03571428571428571 0.03571428571428571 0.03571428571428571 0.03571428571428571 0.03571428571428571 0.03571428571428571 0.03571428571428575 0.03571428571428571 0.03571428571428571 0.03571428571428571 0.03571428571428571 0.03571428571428571 0.03571428571428571 0.03571428571428571 0.03571428571428571 0.03571428571428571 0.03571428571428574 0.03571428571428572 0.03571428571428572 0.03571428571428604</parameters>
		</noisymax>
		<cpt id="supporting_processes">
			<state id="strength" />
			<state id="weakness" />
			<state id="no" />
			<probabilities>0.3333333333333333 0.3333333333333333 0.3333333333333334</probabilities>
		</cpt>
		<noisymax id="consumer_revenue_stream_name">
			<state id="lending_renting_leasing" />
			<state id="asset_sale" />
			<state id="brokerage_fees" />
			<state id="usage_fee" />
			<state id="subscription_fee" />
			<state id="advertising" />
			<state id="licensing" />
			<state id="no" />
			<parents>product_type price_level own_shop_type direct_sales distribution_channels_delivery_to_home fixed_cost_subtype supporting_processes</parents>
			<strengths>0 1 2 0 1 2 3 4 0 1 2 0 1 2 3 0 1 0 1 2 3 4 5 6 7 8 9 10 11 12 13 14 15 16 17 18 19 20 21 22 23 24 25 26 27 0 1 2</strengths>
			<parameters>0.1282051282051282 0.2307692307692307 0.1282051282051282 0.1282051282051282 0.1282051282051282 0.1282051282051282 0.1282051282051282 0 0.1643835616438356 0.136986301369863 0.136986301369863 0.1369863013698631 0.1506849315068493 0.136986301369863 0.136986301369863 0 0 0 0 0 0 0 0 1 0.1282051282051282 0.1282051282051282 0.1282051282051282 0.1282051282051282 0.1282051282051282 0.2307692307692308 0.1282051282051282 0 0.1428571428571428 0.1428571428571428 0.1428571428571429 0.1428571428571428 0.1428571428571429 0.1428571428571429 0.1428571428571429 0 0.1428571428571428 0.1428571428571428 0.1428571428571428 0.1428571428571429 0.1428571428571429 0.1428571428571429 0.1428571428571429 0 0.1428571428571428 0.1428571428571428 0.1428571428571428 0.1428571428571429 0.1428571428571429 0.1428571428571429 0.1428571428571429 0 0 0 0 0 0 0 0 1 0.1282051282051282 0.2307692307692307 0.1282051282051282 0.1282051282051282 0.1282051282051282 0.1282051282051282 0.1282051282051282 0 0.1428571428571428 0.1428571428571428 0.1428571428571428 0.1428571428571429 0.1428571428571428 0.1428571428571428 0.1428571428571428 2.220446049250313e-16 0 0 0 0 0 0 0 1 0.1428571428571428 0.1428571428571428 0.1428571428571428 0.1428571428571428 0.1428571428571429 0.1428571428571428 0.1428571428571431 0 0.1428571428571428 0.1428571428571428 0.1428571428571428 0.1428571428571428 0.1428571428571429 0.1428571428571428 0.1428571428571431 0 0.1298701298701299 0.2207792207792207 0.1298701298701299 0.1298701298701298 0.1298701298701299 0.1298701298701299 0.1298701298701299 0 0 0 0 0 0 0 0 1 0.1282051282051282 0.2307692307692307 0.1282051282051282 0.1282051282051282 0.1282051282051282 0.1282051282051282 0.1282051282051282 0 0 0 0 0 0 0 0 1 0.1298701298701299 0.2207792207792206 0.1298701298701299 0.1298701298701298 0.1298701298701299 0.1298701298701298 0.1298701298701298 0 0.1428571428571428 0.1428571428571428 0.1428571428571428 0.1428571428571429 0.1428571428571429 0.1428571428571429 0.1428571428571429 0 0.1428571428571428 0.1428571428571428 0.1428571428571428 0.1428571428571428 0.1428571428571428 0.1428571428571428 0.1428571428571428 0 0.1428571428571428 0.1428571428571428 0.1428571428571428 0.1428571428571428 0.1428571428571428 0.1428571428571428 0.1428571428571428 0 0.1428571428571428 0.1428571428571428 0.1428571428571428 0.1428571428571428 0.1428571428571428 0.1428571428571428 0.1428571428571428 0 0.1428571428571428 0.1428571428571428 0.1428571428571428 0.1428571428571428 0.1428571428571428 0.1428571428571428 0.1428571428571428 0 0.1428571428571428 0.1428571428571428 0.1428571428571428 0.1428571428571428 0.1428571428571428 0.1428571428571428 0.1428571428571428 0 0.1428571428571428 0.1428571428571428 0.1428571428571428 0.1428571428571428 0.1428571428571428 0.1428571428571428 0.1428571428571428 0 0.1428571428571428 0.1428571428571428 0.1428571428571428 0.1428571428571428 0.1428571428571428 0.1428571428571428 0.1428571428571428 0 0.1428571428571428 0.1428571428571428 0.1428571428571428 0.1428571428571428 0.1428571428571428 0.1428571428571428 0.1428571428571428 0 0.1428571428571428 0.1428571428571428 0.1428571428571428 0.1428571428571428 0.1428571428571428 0.1428571428571428 0.1428571428571428 0 0.1428571428571428 0.1428571428571428 0.1428571428571428 0.1428571428571428 0.1428571428571428 0.1428571428571428 0.1428571428571428 0 0.1428571428571428 0.1428571428571428 0.1428571428571428 0.1428571428571428 0.1428571428571428 0.1428571428571428 0.1428571428571428 0 0.1428571428571428 0.1428571428571428 0.1428571428571428 0.1428571428571428 0.1428571428571428 0.1428571428571428 0.1428571428571428 0 0.1428571428571428 0.1428571428571428 0.1428571428571428 0.1428571428571428 0.1428571428571428 0.1428571428571428 0.1428571428571428 0 0.1428571428571428 0.1428571428571428 0.1428571428571428 0.1428571428571428 0.1428571428571428 0.1428571428571428 0.1428571428571428 0 0.1428571428571428 0.1428571428571428 0.1428571428571428 0.1428571428571428 0.1428571428571428 0.1428571428571428 0.1428571428571428 0 0.1428571428571428 0.1428571428571428 0.1428571428571428 0.1428571428571428 0.1428571428571429 0.1428571428571428 0.1428571428571431 0 0.1428571428571428 0.1428571428571428 0.1428571428571428 0.1428571428571428 0.1428571428571429 0.1428571428571428 0.1428571428571431 0 0.1428571428571428 0.1428571428571428 0.1428571428571428 0.1428571428571428 0.1428571428571429 0.1428571428571428 0.1428571428571431 0 0.1428571428571428 0.1428571428571428 0.1428571428571428 0.1428571428571428 0.1428571428571429 0.1428571428571428 0.1428571428571431 0 0.1428571428571428 0.1428571428571428 0.1428571428571428 0.1428571428571428 0.1428571428571429 0.1428571428571428 0.1428571428571431 0 0.1428571428571428 0.1428571428571428 0.1428571428571428 0.1428571428571428 0.1428571428571429 0.1428571428571428 0.1428571428571431 0 0.1428571428571428 0.1428571428571428 0.1428571428571428 0.1428571428571428 0.1428571428571429 0.1428571428571428 0.1428571428571431 0 0.1428571428571428 0.1428571428571428 0.1428571428571428 0.1428571428571428 0.1428571428571429 0.1428571428571428 0.1428571428571431 0 0.1428571428571428 0.1428571428571428 0.1428571428571428 0.1428571428571428 0.1428571428571429 0.1428571428571428 0.1428571428571431 0 0.1428571428571428 0.1428571428571428 0.1428571428571428 0.1428571428571428 0.1428571428571429 0.1428571428571428 0.1428571428571431 0 0 0 0 0 0 0 0 1 0.1351351351351351 0.1351351351351351 0.1351351351351351 0.1351351351351351 0.1891891891891892 0.1351351351351351 0.1351351351351351 2.220446049250313e-16 0.1428571428571428 0.1428571428571428 0.1428571428571428 0.1428571428571428 0.1428571428571429 0.1428571428571428 0.1428571428571431 0 0 0 0 0 0 0 0 1 0.1428571428571428 0.1428571428571428 0.1428571428571428 0.1428571428571428 0.1428571428571429 0.1428571428571428 0.1428571428571431 0</parameters>
		</noisymax>
		<cpt id="variable_cost_type">
			<state id="resources" />
			<state id="rent_short_term" />
			<state id="packaging" />
			<state id="salaries" />
			<state id="oursourcing_of_specified_services" />
			<state id="permits_and_licenses" />
			<state id="marketing" />
			<state id="distribution" />
			<state id="other" />
			<probabilities>0.1111111111111111 0.1111111111111111 0.1111111111111111 0.1111111111111111 0.1111111111111111 0.1111111111111111 0.1111111111111111 0.1111111111111111 0.1111111111111109</probabilities>
		</cpt>
		<noisymax id="variable_cost_subtype">
			<state id="rent_short_term_manufacturing_building" />
			<state id="rent_short_term_office" />
			<state id="rent_short_term_equipment" />
			<state id="rent_short_term_other" />
			<state id="resources_default" />
			<state id="packaging_default" />
			<state id="salaries_employees_directly_involved_in_production_service" />
			<state id="salaries_other" />
			<state id="oursourcing_of_specified_services_default" />
			<state id="permits_and_licenses_default" />
			<state id="marketing_default" />
			<state id="distribution_transport" />
			<state id="distribution_cost_of_warehouse" />
			<state id="distribution_fees_to_distributors" />
			<state id="distribution_other" />
			<state id="other_default" />
			<parents>product_type direct_sales spend_more_customer_relationship_mechanism keep_customer_relationship_mechanism variable_cost_type</parents>
			<strengths>0 1 2 0 1 2 3 0 1 2 3 0 1 2 3 0 1 2 3 4 5 6 7 8</strengths>
			<parameters>0.1081081081081081 0.02702702702702695 0.108108108108108 0.02702702702702695 0.02702702702702695 0.162162162162162 0.108108108108108 0.02702702702702701 0.02702702702702701 0.02702702702702701 0.2162162162162162 0.02702702702702701 0.02702702702702701 0.02702702702702702 0.02702702702702702 0.02702702702702752 0.04545454545454541 0.04545454545454541 0.04545454545454541 0.04545454545454541 0.04545454545454541 0.04545454545454541 0.04545454545454541 0.04545454545454541 0.04545454545454541 0.04545454545454541 0.3181818181818183 0.04545454545454548 0.04545454545454548 0.04545454545454547 0.04545454545454548 0.04545454545454566 0 0 0 0 0 0 0 0 0 0 0 0 0 0 0 1 0.0625 0.0625 0.0625 0.0625 0.0625 0.0625 0.0625 0.0625 0.0625 0.0625 0.0625 0.0625 0.0625 0.0625 0.0625 0.0625 0.04999999999999993 0.05000000000000004 0.05000000000000004 0.05000000000000004 0.05000000000000004 0.05000000000000004 0.05000000000000004 0.05000000000000004 0.05000000000000004 0.04999999999999999 0.04999999999999999 0.2499999999999999 0.04999999999999999 0.04999999999999999 0.04999999999999998 0.04999999999999991 0.04999999999999993 0.05000000000000004 0.05000000000000004 0.05000000000000004 0.05000000000000004 0.05000000000000004 0.05000000000000004 0.05000000000000004 0.05000000000000004 0.04999999999999999 0.04999999999999999 0.2499999999999999 0.04999999999999999 0.04999999999999999 0.04999999999999998 0.04999999999999991 0 0 0 0 0 0 0 0 0 0 0 0 0 0 0 1 0.0625 0.0625 0.0625 0.0625 0.0625 0.0625 0.0625 0.0625 0.0625 0.0625 0.0625 0.0625 0.0625 0.0625 0.0625 0.0625 0.04166666666666663 0.04166666666666663 0.04166666666666663 0.04166666666666663 0.04166666666666663 0.04166666666666663 0.04166666666666663 0.04166666666666663 0.04166666666666663 0.04166666666666663 0.3750000000000001 0.04166666666666669 0.04166666666666669 0.04166666666666667 0.04166666666666668 0.04166666666666687 0.04166666666666663 0.04166666666666663 0.04166666666666663 0.04166666666666663 0.04166666666666663 0.04166666666666663 0.04166666666666663 0.04166666666666663 0.04166666666666663 0.04166666666666663 0.3750000000000001 0.04166666666666669 0.04166666666666669 0.04166666666666667 0.04166666666666668 0.04166666666666687 0 0 0 0 0 0 0 0 0 0 0 0 0 0 0 1 0.0625 0.0625 0.0625 0.0625 0.0625 0.0625 0.0625 0.0625 0.0625 0.0625 0.0625 0.0625 0.0625 0.0625 0.0625 0.0625 0.04166666666666673 0.04166666666666662 0.04166666666666662 0.04166666666666662 0.04166666666666662 0.04166666666666662 0.04166666666666662 0.04166666666666662 0.04166666666666662 0.04166666666666662 0.3750000000000001 0.04166666666666669 0.04166666666666669 0.04166666666666666 0.04166666666666667 0.04166666666666687 0.04166666666666663 0.04166666666666663 0.04166666666666663 0.04166666666666663 0.04166666666666663 0.04166666666666663 0.04166666666666663 0.04166666666666663 0.04166666666666663 0.04166666666666663 0.3750000000000001 0.04166666666666669 0.04166666666666669 0.04166666666666667 0.04166666666666668 0.04166666666666687 0 0 0 0 0 0 0 0 0 0 0 0 0 0 0 1 0.0625 0.0625 0.0625 0.0625 0.0625 0.0625 0.0625 0.0625 0.0625 0.0625 0.0625 0.0625 0.0625 0.0625 0.0625 0.0625 0.0625 0.0625 0.0625 0.0625 0.0625 0.0625 0.0625 0.0625 0.0625 0.0625 0.0625 0.0625 0.0625 0.0625 0.0625 0.0625 0.0625 0.0625 0.0625 0.0625 0.0625 0.0625 0.0625 0.0625 0.0625 0.0625 0.0625 0.0625 0.0625 0.0625 0.0625 0.0625 0.0625 0.0625 0.0625 0.0625 0.0625 0.0625 0.0625 0.0625 0.0625 0.0625 0.0625 0.0625 0.0625 0.0625 0.0625 0.0625 0.0625 0.0625 0.0625 0.0625 0.0625 0.0625 0.0625 0.0625 0.0625 0.0625 0.0625 0.0625 0.0625 0.0625 0.0625 0.0625 0.0625 0.0625 0.0625 0.0625 0.0625 0.0625 0.0625 0.0625 0.0625 0.0625 0.0625 0.0625 0.0625 0.0625 0.0625 0.0625 0.0625 0.0625 0.0625 0.0625 0.0625 0.0625 0.0625 0.0625 0.0625 0.0625 0.0625 0.0625 0.0625 0.0625 0.0625 0.0625 0.0625 0.0625 0.0625 0.0625 0.0625 0.0625 0.0625 0.0625 0.0625 0.0625 0.0625 0.0625 0.0625 0.0625 0.0625 0.0625 0 0 0 0 0 0 0 0 0 0 0 0 0 0 0 1 0.0625000000000001 0.06249999999999999 0.06249999999999999 0.06249999999999999 0.06249999999999999 0.06249999999999999 0.06249999999999999 0.0625000000000001 0.06249999999999999 0.06249999999999999 0.06249999999999999 0.06249999999999999 0.06250000000000004 0.0625 0.06250000000000001 0.06249999999999989</parameters>
		</noisymax>
		<noisymax id="patents">
			<state id="strength" />
			<state id="weakness" />
			<state id="no" />
			<parents>price_level product_features_aims_to_set_a_trend</parents>
			<strengths>0 1 2 3 4 0 1</strengths>
			<parameters>0.5 0.5 0 0.5833333333333333 0.4166666666666667 0 0.5 0.5 0 0.5 0.5 0 0 0 1 0.5833333333333333 0.4166666666666667 0 0 0 1 0.5 0.5 0</parameters>
		</noisymax>
		<noisymax id="copyrights">
			<state id="strength" />
			<state id="weakness" />
			<state id="no" />
			<parents>patents</parents>
			<strengths>0 1 2</strengths>
			<parameters>0.5833333333333333 0.4166666666666667 0 0.4166666666666666 0.5833333333333334 0 0 0 1 0.4999999999999999 0.5000000000000001 0</parameters>
		</noisymax>
		<noisymax id="advertising_pr_and_sales_promotion">
			<state id="strength" />
			<state id="weakness" />
			<state id="no" />
			<parents>copyrights</parents>
			<strengths>0 1 2</strengths>
			<parameters>0.5833333333333333 0.4166666666666667 0 0.5 0.5 0 0 0 1 0.3333333333333333 0.3333333333333333 0.3333333333333334</parameters>
		</noisymax>
		<noisymax id="discounts">
			<state id="strength" />
			<state id="weakness" />
			<state id="no" />
			<parents>advertising_pr_and_sales_promotion</parents>
			<strengths>0 1 2</strengths>
			<parameters>0.5 0.5 0 0.5833333333333333 0.4166666666666667 0 0 0 1 0.4999999999999999 0.5000000000000001 0</parameters>
		</noisymax>
		<noisymax id="product_design">
			<state id="strength" />
			<state id="weakness" />
			<state id="no" />
			<parents>advertising_pr_and_sales_promotion product_features_has_a_different_visual_design</parents>
			<strengths>0 1 2 0 1</strengths>
			<parameters>0.5 0.5 0 0.5833333333333333 0.4166666666666667 0 0 0 1 0.5833333333333333 0.4166666666666667 0 0 0 1 0.5 0.5 0</parameters>
		</noisymax>
		<cpt id="product_assortment">
			<state id="strength" />
			<state id="weakness" />
			<state id="no" />
			<probabilities>0.3333333333333333 0.3333333333333333 0.3333333333333334</probabilities>
		</cpt>
		<noisymax id="price">
			<state id="strength" />
			<state id="weakness" />
			<state id="no" />
			<parents>discounts product_design product_assortment price_level</parents>
			<strengths>0 1 2 0 1 2 0 1 2 0 1 2 3 4</strengths>
			<parameters>0.4166666666666666 0.5833333333333334 0 0.5 0.5 0 0 0 1 0.4166666666666666 0.5833333333333334 0 0.5 0.5 0 0 0 1 0.5 0.5 0 0.4166666666666666 0.5833333333333334 0 0 0 1 0.5833333333333333 0.4166666666666667 0 0.5 0.5 0 0.5 0.5 0 0.4166666666666666 0.5833333333333334 0 0 0 1 0.5 0.5 0</parameters>
		</noisymax>
		<noisymax id="consumer_prices">
			<state id="fixed_pricing" />
			<state id="dynamic_pricing" />
			<state id="no" />
			<parents>consumer_revenue_stream_name product_type price_level product_features_is_exclusive own_shop_type store_location channel keep_customer_relationship_mechanism variable_cost_subtype discounts price</parents>
			<strengths>0 1 2 3 4 5 6 7 0 1 2 0 1 2 3 4 0 1 0 1 2 0 1 2 3 4 0 1 2 3 4 5 0 1 2 3 0 1 2 3 4 5 6 7 8 9 10 11 12 13 14 15 0 1 2 0 1 2</strengths>
			<parameters>0.6551724137931034 0.3448275862068966 0 0.5517241379310345 0.4482758620689655 0 0.6428571428571429 0.3571428571428571 0 0.5862068965517241 0.4137931034482759 0 0.6551724137931034 0.3448275862068966 0 0.5 0.5 0 0.6153846153846154 0.3846153846153846 0 0 0 1 0.6551724137931034 0.3448275862068966 0 0.6153846153846154 0.3846153846153846 0 0 0 1 0.4996337890625 0.5003662109375 0 0.6426890287487578 0.3573109712512422 0 0.6426890287487578 0.3573109712512422 0 0.4996337890625 0.5003662109375 0 0 0 1 0.6551724137931034 0.3448275862068966 0 0 0 1 0.5 0.5 0 0.5833333333333333 0.4166666666666667 0 0 0 1 0.6551724137931034 0.3448275862068966 0 0.5 0.5 0 0.5 0.5 0 0.5 0.5 0 0 0 1 0.4996337890625 0.5003662109375 0 0.4996337890625 0.5003662109375 0 0.4996337890625 0.5003662109375 0 0.3844419814776548 0.6155580185223452 0 0.4996337890625 0.5003662109375 0 0 0 1 0.5 0.5 0 0.6296296296296295 0.3703703703703703 1.110223024625157e-16 0.5 0.5 0 0 0 1 0.4996337890625 0.5003662109375 0 0.4996337890625 0.5003662109375 0 0.4996337890625 0.5003662109375 0 0.4996337890625 0.5003662109375 0 0.4996337890625 0.5003662109375 0 0.4996337890625 0.5003662109375 0 0.4996337890625 0.5003662109375 0 0.6152113099149503 0.3847886900850496 0 0.4996337890625 0.5003662109375 0 0.4996337890625 0.5003662109375 0 0.4996337890625 0.5003662109375 0 0.4996337890625 0.5003662109375 0 0.4996337890625 0.5003662109375 0 0.4996337890625 0.5003662109375 0 0.4996337890625 0.5003662109375 0 0 0 1 0.3701995260577775 0.6298004739422224 1.110223024625157e-16 0.4996337890625 0.5003662109375 0 0 0 1 0.4996337890625 0.5003662109375 0 0.6426890287487578 0.3573109712512422 0 0 0 1 0.4996337890625 0.5003662109375 0</parameters>
		</noisymax>
		<cpt id="corporate_image">
			<state id="strength" />
			<state id="weakness" />
			<state id="no" />
			<probabilities>0.3333333333333333 0.3333333333333333 0.3333333333333334</probabilities>
		</cpt>
		<noisymax id="economic_growth">
			<state id="opportunity" />
			<state id="threat" />
			<state id="no" />
			<parents>price_level</parents>
			<strengths>0 1 2 3 4</strengths>
			<parameters>0.5 0.5 0 0.5 0.5 0 0.5 0.5 0 0.5833333333333333 0.4166666666666667 0 0 0 1 0.5 0.5 0</parameters>
		</noisymax>
		<noisymax id="consumer_types_of_pricing">
			<state id="negotiation" />
			<state id="yield_management" />
			<state id="real_time_market" />
			<state id="auctions" />
			<state id="list_price" />
			<state id="product_feature_dependent" />
			<state id="volume_dependent" />
			<parents>consumer_prices consumer_revenue_stream_name product_type price_level own_shop_type direct_sales new_customer_relationship_mechanism spend_more_customer_relationship_mechanism corporate_image economic_growth</parents>
			<strengths>0 1 2 0 1 2 3 4 5 6 7 0 1 2 0 1 2 3 4 0 1 2 0 1 2 3 0 1 2 3 0 1 2 3 0 1 2 0 1 2</strengths>
			<parameters>0 0 0 0 0.4318170129545246 0.03875145557196991 0.5294315314735055 0.25 0.25 0.25 0.25 0 0 0 0 0 0 0 0 0 1 0.1428571428571428 0.1428571428571428 0.1428571428571428 0.1428571428571428 0.1428571428571429 0.1428571428571429 0.142857142857143 0.1428571428571428 0.1428571428571428 0.1428571428571428 0.1428571428571428 0.1428571428571429 0.1428571428571429 0.142857142857143 0.1428571428571428 0.1428571428571428 0.1428571428571428 0.1428571428571428 0.1428571428571429 0.1428571428571429 0.142857142857143 0.1428571428571428 0.1428571428571428 0.1428571428571428 0.1428571428571428 0.1428571428571429 0.1428571428571429 0.142857142857143 0.1428571428571428 0.1428571428571428 0.1428571428571428 0.1428571428571428 0.1428571428571429 0.1428571428571429 0.142857142857143 0.1428571428571428 0.1428571428571428 0.1428571428571428 0.1428571428571428 0.1428571428571429 0.1428571428571429 0.142857142857143 0.1428571428571428 0.1428571428571428 0.1428571428571428 0.1428571428571428 0.1428571428571429 0.1428571428571429 0.142857142857143 0 0 0 0 0 0 1 0.136986301369863 0.136986301369863 0.136986301369863 0.136986301369863 0.136986301369863 0.136986301369863 0.178082191780822 0.125 0.125 0.125 0.125 0.2 0.175 0.125 0 0 0 0 0 0 1 0.1265822784810126 0.1265822784810127 0.1265822784810127 0.1265822784810127 0.240506329113924 0.1265822784810127 0.1265822784810128 0.1428571428571428 0.1428571428571428 0.1428571428571428 0.1428571428571429 0.1428571428571429 0.1428571428571429 0.1428571428571429 0.1428571428571428 0.1428571428571428 0.1428571428571428 0.1428571428571429 0.1428571428571429 0.1428571428571429 0.1428571428571429 0.1428571428571428 0.1428571428571428 0.1428571428571428 0.1428571428571429 0.1428571428571429 0.1428571428571429 0.1428571428571429 0 0 0 0 0 0 1 0.1428571428571428 0.1428571428571428 0.1428571428571428 0.1428571428571429 0.1428571428571429 0.1428571428571429 0.1428571428571429 0.1298701298701299 0.1298701298701299 0.1298701298701299 0.1298701298701298 0.1298701298701299 0.1298701298701299 0.2207792207792207 0 0 0 0 0 0 1 0.1428571428571428 0.1428571428571428 0.1428571428571428 0.1428571428571429 0.1428571428571429 0.1428571428571429 0.1428571428571429 0.2105263157894738 0.131578947368421 0.131578947368421 0.131578947368421 0.1315789473684211 0.1315789473684211 0.1315789473684212 0.1428571428571428 0.1428571428571428 0.1428571428571428 0.1428571428571429 0.1428571428571429 0.1428571428571429 0.1428571428571429 0 0 0 0 0 0 1 0.1794871801183432 0.1282051281065089 0.1282051281065089 0.1282051281065089 0.1794871793491125 0.1282051281065089 0.1282051281065089 0.1428571428571428 0.1428571428571428 0.1428571428571428 0.1428571428571429 0.1428571428571429 0.1428571428571429 0.1428571428571429 0.1428571428571428 0.1428571428571428 0.1428571428571428 0.1428571428571429 0.1428571428571429 0.1428571428571429 0.1428571428571429 0 0 0 0 0 0 1 0.1428571428571428 0.1428571428571428 0.1428571428571428 0.1428571428571429 0.1428571428571429 0.1428571428571429 0.1428571428571429 0.1377410468319559 0.137741046831956 0.137741046831956 0.137741046831956 0.137741046831956 0.137741046831956 0.1735537190082642 0.1428571428571428 0.1428571428571428 0.1428571428571428 0.1428571428571429 0.1428571428571429 0.1428571428571429 0.1428571428571429 0 0 0 0 0 0 1 0.1351351351351351 0.1351351351351351 0.1351351351351351 0.1351351351351351 0.1891891891891893 0.1351351351351352 0.1351351351351351 0.1428571428571428 0.1428571428571428 0.1428571428571428 0.1428571428571429 0.1428571428571429 0.1428571428571429 0.1428571428571429 0 0 0 0 0 0 1 0.1377410468319559 0.137741046831956 0.137741046831956 0.137741046831956 0.1377410468319559 0.1735537190082645 0.1377410468319558 0.1428571428571428 0.1428571428571428 0.1428571428571428 0.1428571428571428 0.1428571428571428 0.1428571428571428 0.1428571428571428 0 0 0 0 0 0 1 0.1428571428571428 0.1428571428571428 0.1428571428571428 0.1428571428571429 0.1428571428571428 0.1428571428571428 0.142857142857143</parameters>
		</noisymax>
		<cpt id="num_revenue_streams_consumers">
			<state id="num0" />
			<state id="num1" />
			<state id="num2" />
			<state id="num3" />
			<state id="num4" />
			<state id="num_more" />
			<probabilities>0.1666666666666667 0.1666666666666667 0.1666666666666667 0.1666666666666667 0.1666666666666667 0.1666666666666667</probabilities>
		</cpt>
		<cpt id="business_revenue_stream_name">
			<state id="lending_renting_leasing" />
			<state id="asset_sale" />
			<state id="brokerage_fees" />
			<state id="usage_fee" />
			<state id="subscription_fee" />
			<state id="advertising" />
			<state id="licensing" />
			<state id="no" />
			<probabilities>0.1428571428571428 0.1428571428571428 0.1428571428571428 0.1428571428571428 0.1428571428571428 0.1428571428571428 0.142857142857143 0</probabilities>
		</cpt>
		<noisymax id="business_prices">
			<state id="fixed_pricing" />
			<state id="dynamic_pricing" />
			<state id="no" />
			<parents>business_revenue_stream_name</parents>
			<strengths>0 1 2 3 4 5 6 7</strengths>
			<parameters>0.5 0.5 0 0.5652173913043479 0.4347826086956521 0 0.5 0.5 0 0.6153846153846154 0.3846153846153846 0 0.5 0.5 0 0.5 0.5 0 0 0 1 0 0 1 0.5 0.5 0</parameters>
		</noisymax>
		<noisymax id="business_types_of_pricing">
			<state id="negotiation" />
			<state id="yield_management" />
			<state id="real_time_market" />
			<state id="auctions" />
			<state id="list_price" />
			<state id="product_feature_dependent" />
			<state id="volume_dependent" />
			<parents>business_prices business_revenue_stream_name</parents>
			<strengths>0 1 2 0 1 2 3 4 5 6 7</strengths>
			<parameters>0 0 0 0 0.4594594594594594 0.2702702702702702 0.2702702702702704 0.3181818181818182 0.2272727272727272 0.2272727272727273 0.2272727272727273 0 0 0 0 0 0 0 0 0 1 0.189189189189189 0.1351351351351351 0.1351351351351351 0.1351351351351351 0.1351351351351351 0.1351351351351351 0.1351351351351353 0.1428571428571428 0.1428571428571428 0.1428571428571428 0.1428571428571428 0.1428571428571428 0.1428571428571428 0.142857142857143 0.1428571428571428 0.1428571428571428 0.1428571428571428 0.1428571428571428 0.1428571428571428 0.1428571428571428 0.142857142857143 0.1428571428571428 0.1428571428571428 0.1428571428571428 0.1428571428571428 0.1428571428571428 0.1428571428571428 0.142857142857143 0.1333333333333333 0.1333333333333333 0.1333333333333333 0.1333333333333333 0.1333333333333333 0.1333333333333333 0.2000000000000001 0.131578947368421 0.131578947368421 0.131578947368421 0.131578947368421 0.2105263157894737 0.131578947368421 0.1315789473684211 0.1428571428571428 0.1428571428571428 0.1428571428571428 0.1428571428571428 0.1428571428571428 0.1428571428571428 0.142857142857143 0 0 0 0 0 0 1 0.1428571428571428 0.1428571428571428 0.1428571428571428 0.1428571428571428 0.1428571428571428 0.1428571428571428 0.142857142857143</parameters>
		</noisymax>
		<cpt id="num_revenue_streams_business">
			<state id="num0" />
			<state id="num1" />
			<state id="num2" />
			<state id="num3" />
			<state id="num4" />
			<state id="num_more" />
			<probabilities>0.1666666666666667 0.1666666666666667 0.1666666666666667 0.1666666666666667 0.1666666666666667 0.1666666666666667</probabilities>
		</cpt>
		<cpt id="num_revenue_streams_ngo">
			<state id="num0" />
			<state id="num1" />
			<state id="num2" />
			<state id="num3" />
			<state id="num4" />
			<state id="num_more" />
			<probabilities>0.1666666666666667 0.1666666666666667 0.1666666666666667 0.1666666666666667 0.1666666666666667 0.1666666666666667</probabilities>
		</cpt>
		<cpt id="ngo_revenue_stream_name">
			<state id="lending_renting_leasing" />
			<state id="asset_sale" />
			<state id="brokerage_fees" />
			<state id="usage_fee" />
			<state id="subscription_fee" />
			<state id="advertising" />
			<state id="licensing" />
			<probabilities>0.1428571428571428 0.1428571428571428 0.1428571428571428 0.1428571428571428 0.1428571428571428 0.1428571428571428 0.142857142857143</probabilities>
		</cpt>
		<cpt id="ngo_prices">
			<state id="fixed_pricing" />
			<state id="dynamic_pricing" />
			<probabilities>0.5 0.5</probabilities>
		</cpt>
		<cpt id="ngo_types_of_pricing">
			<state id="negotiation" />
			<state id="yield_management" />
			<state id="real_time_market" />
			<state id="auctions" />
			<state id="list_price" />
			<state id="product_feature_dependent" />
			<state id="volume_dependent" />
			<parents>ngo_prices</parents>
			<probabilities>0 0 0 0 0.3333333333333333 0.3333333333333333 0.3333333333333334 0.25 0.25 0.25 0.25 0 0 0</probabilities>
		</cpt>
		<cpt id="num_fixed_costs">
			<state id="num0" />
			<state id="num1" />
			<state id="num2" />
			<state id="num3" />
			<state id="num4" />
			<state id="num_more" />
			<probabilities>0.1666666666666667 0.1666666666666667 0.1666666666666667 0.1666666666666667 0.1666666666666667 0.1666666666666667</probabilities>
		</cpt>
		<cpt id="num_variable_costs">
			<state id="num0" />
			<state id="num1" />
			<state id="num2" />
			<state id="num3" />
			<state id="num4" />
			<state id="num_more" />
			<probabilities>0.1666666666666667 0.1666666666666667 0.1666666666666667 0.1666666666666667 0.1666666666666667 0.1666666666666667</probabilities>
		</cpt>
		<cpt id="is_distributor_priority">
			<state id="True" />
			<state id="False" />
			<probabilities>0.5 0.5</probabilities>
		</cpt>
		<cpt id="distributor_type">
			<state id="self_distribution" />
			<state id="highly_diversified_distributors" />
			<state id="retailers" />
			<state id="wholesalers" />
			<state id="agents" />
			<state id="others" />
			<probabilities>0.1666666666666667 0.1666666666666667 0.1666666666666667 0.1666666666666667 0.1666666666666667 0.1666666666666667</probabilities>
		</cpt>
		<cpt id="num_key_partners_distributors">
			<state id="num0" />
			<state id="num1" />
			<state id="num2" />
			<state id="num3" />
			<state id="num4" />
			<state id="num_more" />
			<probabilities>0.1666666666666667 0.1666666666666667 0.1666666666666667 0.1666666666666667 0.1666666666666667 0.1666666666666667</probabilities>
		</cpt>
		<cpt id="is_supplier_priority">
			<state id="True" />
			<state id="False" />
			<probabilities>0.5 0.5</probabilities>
		</cpt>
		<cpt id="supplier_type">
			<state id="raw_materials_finished_or_semi_finished_goods" />
			<state id="equipment_and_real_estate" />
			<state id="outsourced_services" />
			<state id="financiers" />
			<state id="human_resources" />
			<probabilities>0.2 0.2 0.2 0.2 0.2</probabilities>
		</cpt>
		<cpt id="num_key_partners_suppliers">
			<state id="num0" />
			<state id="num1" />
			<state id="num2" />
			<state id="num3" />
			<state id="num4" />
			<state id="num_more" />
			<probabilities>0.1666666666666667 0.1666666666666667 0.1666666666666667 0.1666666666666667 0.1666666666666667 0.1666666666666667</probabilities>
		</cpt>
		<cpt id="is_other_priority">
			<state id="True" />
			<state id="False" />
			<probabilities>0.5 0.5</probabilities>
		</cpt>
		<cpt id="other_partner_type">
			<state id="consultants" />
			<state id="government_institutions" />
			<state id="other" />
			<state id="associations" />
			<state id="non_governmental_institutions" />
			<probabilities>0.2 0.2 0.2 0.2 0.2</probabilities>
		</cpt>
		<cpt id="num_key_partners_others">
			<state id="num0" />
			<state id="num1" />
			<state id="num2" />
			<state id="num3" />
			<state id="num4" />
			<state id="num_more" />
			<probabilities>0.1666666666666667 0.1666666666666667 0.1666666666666667 0.1666666666666667 0.1666666666666667 0.1666666666666667</probabilities>
		</cpt>
		<cpt id="complementary_and_aftersales_service">
			<state id="strength" />
			<state id="weakness" />
			<state id="no" />
			<probabilities>0.5 0.5 0</probabilities>
		</cpt>
		<cpt id="customer_convenient_access_to_products">
			<state id="strength" />
			<state id="weakness" />
			<state id="no" />
			<probabilities>0.3333333333333333 0.3333333333333333 0.3333333333333334</probabilities>
		</cpt>
		<cpt id="facilities_and_equipment">
			<state id="strength" />
			<state id="weakness" />
			<state id="no" />
			<probabilities>0.3333333333333333 0.3333333333333333 0.3333333333333334</probabilities>
		</cpt>
		<noisymax id="guarantees_and_warranties">
			<state id="strength" />
			<state id="weakness" />
			<state id="no" />
			<parents>corporate_image complementary_and_aftersales_service</parents>
			<strengths>0 1 2 0 1 2</strengths>
			<parameters>0.5833333333333333 0.4166666666666667 0 0.5 0.5 0 0 0 1 0.5833333333333333 0.4166666666666667 0 0.5 0.5 0 0 0 1 0.3333333333333333 0.3333333333333333 0.3333333333333334</parameters>
		</noisymax>
		<cpt id="inventory">
			<state id="strength" />
			<state id="weakness" />
			<state id="no" />
			<probabilities>0.3333333333333333 0.3333333333333333 0.3333333333333334</probabilities>
		</cpt>
		<cpt id="land">
			<state id="strength" />
			<state id="weakness" />
			<state id="no" />
			<probabilities>0.3333333333333333 0.3333333333333333 0.3333333333333334</probabilities>
		</cpt>
		<noisymax id="management_processes">
			<state id="strength" />
			<state id="weakness" />
			<state id="no" />
			<parents>corporate_image</parents>
			<strengths>0 1 2</strengths>
			<parameters>0.5833333333333333 0.4166666666666667 0 0.5 0.5 0 0 0 1 0.3333333333333333 0.3333333333333333 0.3333333333333334</parameters>
		</noisymax>
		<cpt id="vehicles">
			<state id="strength" />
			<state id="weakness" />
			<state id="no" />
			<probabilities>0.3333333333333333 0.3333333333333333 0.3333333333333334</probabilities>
		</cpt>
		<noisymax id="skills_and_experience_of_employees">
			<state id="strength" />
			<state id="weakness" />
			<state id="no" />
			<parents>product_features_is_the_result_of_r_d product_features_is_a_fundamentally_new_product_or_serivce</parents>
			<strengths>0 1 0 1</strengths>
			<parameters>0.5833333333333333 0.4166666666666667 0 0 0 1 0.5833333333333333 0.4166666666666667 0 0 0 1 0.5 0.5 0</parameters>
		</noisymax>
		<noisymax id="operational_processes">
			<state id="strength" />
			<state id="weakness" />
			<state id="no" />
			<parents>vehicles skills_and_experience_of_employees customer_convenient_access_to_products supporting_processes product_type</parents>
			<strengths>0 1 2 0 1 2 0 1 2 0 1 2 0 1 2</strengths>
			<parameters>0.4999999999999999 0.5000000000000001 0 0.5833333333333333 0.4166666666666667 0 0 0 1 0.4999999999999999 0.5000000000000001 0 0.5833333333333333 0.4166666666666667 0 0 0 1 0.5833333333333333 0.4166666666666667 0 0.4166666666666666 0.5833333333333334 0 0 0 1 0.5833333333333333 0.4166666666666667 0 0.4166666666666666 0.5833333333333334 0 0 0 1 0.5 0.5 0 0.5833333333333333 0.4166666666666667 0 0 0 1 0.4999999999999999 0.5000000000000001 0</parameters>
		</noisymax>
		<noisymax id="packaging_and_labeling">
			<state id="strength" />
			<state id="weakness" />
			<state id="no" />
			<parents>operational_processes</parents>
			<strengths>0 1 2</strengths>
			<parameters>0.5833333333333333 0.4166666666666667 0 0.5 0.5 0 0 0 1 0.3333333333333333 0.3333333333333333 0.3333333333333334</parameters>
		</noisymax>
		<cpt id="payment_terms">
			<state id="strength" />
			<state id="weakness" />
			<state id="no" />
			<probabilities>0.3333333333333333 0.3333333333333333 0.3333333333333334</probabilities>
		</cpt>
		<noisymax id="return_of_goods">
			<state id="strength" />
			<state id="weakness" />
			<state id="no" />
			<parents>guarantees_and_warranties</parents>
			<strengths>0 1 2</strengths>
			<parameters>0.5833333333333333 0.4166666666666667 0 0.5 0.5 0 0 0 1 0.3333333333333333 0.3333333333333333 0.3333333333333334</parameters>
		</noisymax>
		<noisymax id="trademarks">
			<state id="strength" />
			<state id="weakness" />
			<state id="no" />
			<parents>corporate_image</parents>
			<strengths>0 1 2</strengths>
			<parameters>0.5833333333333333 0.4166666666666667 0 0.5 0.5 0 0 0 1 0.3333333333333333 0.3333333333333333 0.3333333333333334</parameters>
		</noisymax>
		<cpt id="competition">
			<state id="opportunity" />
			<state id="threat" />
			<state id="no" />
			<probabilities>0.3333333333333333 0.3333333333333333 0.3333333333333334</probabilities>
		</cpt>
		<noisymax id="accessibility_of_financial_resources">
			<state id="opportunity" />
			<state id="threat" />
			<state id="no" />
			<parents>competition economic_growth</parents>
			<strengths>0 1 2 0 1 2</strengths>
			<parameters>0.5 0.5 0 0.4166666666666666 0.5833333333333334 0 0 0 1 0.5833333333333333 0.4166666666666667 0 0.5 0.5 0 0 0 1 0.5 0.5 0</parameters>
		</noisymax>
		<cpt id="accessibility_of_human_resources">
			<state id="opportunity" />
			<state id="threat" />
			<state id="no" />
			<probabilities>0.3333333333333333 0.3333333333333333 0.3333333333333334</probabilities>
		</cpt>
		<noisymax id="accessibility_of_tangible_resources">
			<state id="opportunity" />
			<state id="threat" />
			<state id="no" />
			<parents>economic_growth</parents>
			<strengths>0 1 2</strengths>
			<parameters>0.5833333333333333 0.4166666666666667 0 0.5 0.5 0 0 0 1 0.5 0.5 0</parameters>
		</noisymax>
		<cpt id="substitution_possibilities">
			<state id="opportunity" />
			<state id="threat" />
			<state id="no" />
			<probabilities>0.3333333333333333 0.3333333333333333 0.3333333333333334</probabilities>
		</cpt>
		<noisymax id="income_and_wealth">
			<state id="opportunity" />
			<state id="threat" />
			<state id="no" />
			<parents>price_level</parents>
			<strengths>0 1 2 3 4</strengths>
			<parameters>0.5 0.5 0 0.5 0.5 0 0.5 0.5 0 0.5833333333333333 0.4166666666666667 0 0 0 1 0.5 0.5 0</parameters>
		</noisymax>
		<noisymax id="bargaining_power_of_buyers">
			<state id="opportunity" />
			<state id="threat" />
			<state id="no" />
			<parents>substitution_possibilities income_and_wealth</parents>
			<strengths>0 1 2 0 1 2</strengths>
			<parameters>0.5 0.5 0 0.4166666666666666 0.5833333333333334 0 0 0 1 0.5 0.5 0 0.4166666666666666 0.5833333333333334 0 0 0 1 0.5 0.5 0</parameters>
		</noisymax>
		<cpt id="bargaining_power_of_suppliers">
			<state id="opportunity" />
			<state id="threat" />
			<state id="no" />
			<probabilities>0.3333333333333333 0.3333333333333333 0.3333333333333334</probabilities>
		</cpt>
		<cpt id="climate_and_its_change">
			<state id="opportunity" />
			<state id="threat" />
			<state id="no" />
			<probabilities>0.3333333333333333 0.3333333333333333 0.3333333333333334</probabilities>
		</cpt>
		<cpt id="cultural_norms_and_values">
			<state id="opportunity" />
			<state id="threat" />
			<state id="no" />
			<probabilities>0.3333333333333333 0.3333333333333333 0.3333333333333334</probabilities>
		</cpt>
		<cpt id="technological_change">
			<state id="opportunity" />
			<state id="threat" />
			<state id="no" />
			<probabilities>0.3333333333333333 0.3333333333333333 0.3333333333333334</probabilities>
		</cpt>
		<noisymax id="cybersecurity">
			<state id="opportunity" />
			<state id="threat" />
			<state id="no" />
			<parents>technological_change</parents>
			<strengths>0 1 2</strengths>
			<parameters>0.4166666666666666 0.5833333333333334 0 0.5 0.5 0 0 0 1 0.5 0.5 0</parameters>
		</noisymax>
		<noisymax id="demographic_trends">
			<state id="opportunity" />
			<state id="threat" />
			<state id="no" />
			<parents>accessibility_of_human_resources</parents>
			<strengths>0 1 2</strengths>
			<parameters>0.5833333333333333 0.4166666666666667 0 0.5 0.5 0 0 0 1 0.5 0.5 0</parameters>
		</noisymax>
		<cpt id="exchange_rate">
			<state id="opportunity" />
			<state id="threat" />
			<state id="no" />
			<probabilities>0.3333333333333333 0.3333333333333333 0.3333333333333334</probabilities>
		</cpt>
		<cpt id="government_regulation">
			<state id="opportunity" />
			<state id="threat" />
			<state id="no" />
			<probabilities>0.3333333333333333 0.3333333333333333 0.3333333333333334</probabilities>
		</cpt>
		<noisymax id="inflation">
			<state id="opportunity" />
			<state id="threat" />
			<state id="no" />
			<parents>price_level</parents>
			<strengths>0 1 2 3 4</strengths>
			<parameters>0.5 0.5 0 0.5 0.5 0 0.5 0.5 0 0.4166666666666666 0.5833333333333334 0 0 0 1 0.5 0.5 0</parameters>
		</noisymax>
		<cpt id="infrastructure">
			<state id="opportunity" />
			<state id="threat" />
			<state id="no" />
			<probabilities>0.3333333333333333 0.3333333333333333 0.3333333333333334</probabilities>
		</cpt>
		<noisymax id="interest_rate">
			<state id="opportunity" />
			<state id="threat" />
			<state id="no" />
			<parents>accessibility_of_financial_resources</parents>
			<strengths>0 1 2</strengths>
			<parameters>0.5 0.5 0 0.4166666666666666 0.5833333333333334 0 0 0 1 0.5 0.5 0</parameters>
		</noisymax>
		<noisymax id="lifestyle_trends">
			<state id="opportunity" />
			<state id="threat" />
			<state id="no" />
			<parents>cultural_norms_and_values product_features_aims_to_set_a_trend product_features_is_more_user_friendly product_features_is_more_eco_friendly product_features_is_the_result_of_r_d</parents>
			<strengths>0 1 2 0 1 0 1 0 1 0 1</strengths>
			<parameters>0.5833333333333333 0.4166666666666667 0 0.4166666666666666 0.5833333333333334 0 0 0 1 0.5833333333333333 0.4166666666666667 0 0 0 1 0.5833333333333333 0.4166666666666667 0 0 0 1 0.5833333333333333 0.4166666666666667 0 0 0 1 0.5833333333333333 0.4166666666666667 0 0 0 1 0.5 0.5 0</parameters>
		</noisymax>
		<noisymax id="market_size">
			<state id="opportunity" />
			<state id="threat" />
			<state id="no" />
			<parents>demographic_trends price_level</parents>
			<strengths>0 1 2 0 1 2 3 4</strengths>
			<parameters>0.5 0.5 0 0.4166666666666666 0.5833333333333334 0 0 0 1 0.5 0.5 0 0.5 0.5 0 0.5 0.5 0 0.5833333333333333 0.4166666666666667 0 0 0 1 0.5 0.5 0</parameters>
		</noisymax>
		<noisymax id="natural_disasters">
			<state id="opportunity" />
			<state id="threat" />
			<state id="no" />
			<parents>climate_and_its_change</parents>
			<strengths>0 1 2</strengths>
			<parameters>0.5833333333333333 0.4166666666666667 0 0.4166666666666666 0.5833333333333334 0 0 0 1 0.5 0.5 0</parameters>
		</noisymax>
		<noisymax id="new_markets">
			<state id="opportunity" />
			<state id="threat" />
			<state id="no" />
			<parents>demographic_trends market_size</parents>
			<strengths>0 1 2 0 1 2</strengths>
			<parameters>0.5833333333333333 0.4166666666666667 0 0.5 0.5 0 0 0 1 0.5 0.5 0 0.5833333333333333 0.4166666666666667 0 0 0 1 0.4999999999999999 0.5000000000000001 0</parameters>
		</noisymax>
		<noisymax id="political_stability">
			<state id="opportunity" />
			<state id="threat" />
			<state id="no" />
			<parents>government_regulation</parents>
			<strengths>0 1 2</strengths>
			<parameters>0.5 0.5 0 0.4166666666666666 0.5833333333333334 0 0 0 1 0.4999999999999999 0.5000000000000001 0</parameters>
		</noisymax>
		<noisymax id="potential_future_competition">
			<state id="opportunity" />
			<state id="threat" />
			<state id="no" />
			<parents>competition</parents>
			<strengths>0 1 2</strengths>
			<parameters>0.5 0.5 0 0.4166666666666666 0.5833333333333334 0 0 0 1 0.5 0.5 0</parameters>
		</noisymax>
	</nodes>
	<extensions>
		<genie version="1.0" app="GeNIe 3.0.6518.0 ACADEMIC" name="main">
			<node id="type_goods">
				<name>type_goods</name>
				<interior color="e5f6f7" />
				<outline color="000080" />
				<font color="000000" name="Arial" size="8" />
				<position>407 134 534 174</position>
			</node>
			<node id="type_services">
				<name>type_services</name>
				<interior color="e5f6f7" />
				<outline color="000080" />
				<font color="000000" name="Arial" size="8" />
				<position>501 182 628 222</position>
			</node>
			<node id="company_size_small">
				<name>company_size_small</name>
				<interior color="e5f6f7" />
				<outline color="000080" />
				<font color="000000" name="Arial" size="8" />
				<position>226 173 406 213</position>
			</node>
			<node id="company_size_medium">
				<name>company_size_medium</name>
				<interior color="e5f6f7" />
				<outline color="000080" />
				<font color="000000" name="Arial" size="8" />
				<position>243 234 416 282</position>
			</node>
			<node id="company_size_large">
				<name>company_size_large</name>
				<interior color="e5f6f7" />
				<outline color="000080" />
				<font color="000000" name="Arial" size="8" />
				<position>248 294 434 334</position>
			</node>
			<node id="bus_geo_location_domestic">
				<name>bus_geo_location_domestic</name>
				<interior color="e5f6f7" />
				<outline color="000080" />
				<font color="000000" name="Arial" size="8" />
				<position>769 215 1010 260</position>
			</node>
			<node id="bus_geo_location_foreign_rural">
				<name>bus_geo_location_foreign_rural</name>
				<interior color="e5f6f7" />
				<outline color="000080" />
				<font color="000000" name="Arial" size="8" />
				<position>714 265 972 310</position>
			</node>
			<node id="bus_geo_location_foreign_urban">
				<name>bus_geo_location_foreign_urban</name>
				<interior color="e5f6f7" />
				<outline color="000080" />
				<font color="000000" name="Arial" size="8" />
				<position>680 314 932 359</position>
			</node>
			<node id="bus_geo_location_foreign">
				<name>bus_geo_location_foreign</name>
				<interior color="e5f6f7" />
				<outline color="000080" />
				<font color="000000" name="Arial" size="8" />
				<position>569 355 818 400</position>
			</node>
			<node id="bus_geo_location_domestic_rural">
				<name>bus_geo_location_domestic_rural</name>
				<interior color="e5f6f7" />
				<outline color="000080" />
				<font color="000000" name="Arial" size="8" />
				<position>493 404 750 449</position>
			</node>
			<node id="bus_geo_location_domestic_urban">
				<name>bus_geo_location_domestic_urban</name>
				<interior color="e5f6f7" />
				<outline color="000080" />
				<font color="000000" name="Arial" size="8" />
				<position>473 452 737 497</position>
			</node>
			<node id="channel">
				<name>channel</name>
				<interior color="e5f6f7" />
				<outline color="000080" />
				<font color="000000" name="Arial" size="8" />
				<position>1133 215 1273 239</position>
			</node>
			<node id="direct_sales">
				<name>direct_sales</name>
				<interior color="e5f6f7" />
				<outline color="000080" />
				<font color="000000" name="Arial" size="8" />
				<position>1295 120 1366 164</position>
			</node>
			<node id="own_shop_type">
				<name>own_shop_type</name>
				<interior color="e5f6f7" />
				<outline color="000080" />
				<font color="000000" name="Arial" size="8" />
				<position>1401 190 1553 231</position>
			</node>
			<node id="store_location">
				<name>store_location</name>
				<interior color="e5f6f7" />
				<outline color="000080" />
				<font color="000000" name="Arial" size="8" />
				<position>1575 167 1761 191</position>
			</node>
			<node id="distribution_channels_self_pickup">
				<name>distribution_channels_self_pickup</name>
				<interior color="e5f6f7" />
				<outline color="000080" />
				<font color="000000" name="Arial" size="8" />
				<position>1251 283 1481 316</position>
			</node>
			<node id="distribution_channels_delivery_to_home">
				<name>distribution_channels_delivery_to_home</name>
				<interior color="e5f6f7" />
				<outline color="000080" />
				<font color="000000" name="Arial" size="8" />
				<position>1849 308 2098 351</position>
			</node>
			<node id="distrubution_channels_courier_service">
				<name>distrubution_channels_courier_service</name>
				<interior color="e5f6f7" />
				<outline color="000080" />
				<font color="000000" name="Arial" size="8" />
				<position>1367 427 1632 467</position>
			</node>
			<node id="distribution_channels_own_delivery">
				<name>distribution_channels_own_delivery</name>
				<interior color="e5f6f7" />
				<outline color="000080" />
				<font color="000000" name="Arial" size="8" />
				<position>1635 265 1889 310</position>
			</node>
			<node id="distribution_channels_to_the_email">
				<name>distribution_channels_to_the_email</name>
				<interior color="e5f6f7" />
				<outline color="000080" />
				<font color="000000" name="Arial" size="8" />
				<position>1621 352 1841 399</position>
			</node>
			<node id="age_under_12">
				<name>age_under_12</name>
				<interior color="e5f6f7" />
				<outline color="000080" />
				<font color="000000" name="Arial" size="8" />
				<position>999 844 1103 868</position>
			</node>
			<node id="age_35_64">
				<name>age_35_64</name>
				<interior color="e5f6f7" />
				<outline color="000080" />
				<font color="000000" name="Arial" size="8" />
				<position>1004 1120 1141 1144</position>
			</node>
			<node id="age_25_34">
				<name>age_25_34</name>
				<interior color="e5f6f7" />
				<outline color="000080" />
				<font color="000000" name="Arial" size="8" />
				<position>1097 1049 1234 1073</position>
			</node>
			<node id="age_18_24">
				<name>age_18_24</name>
				<interior color="e5f6f7" />
				<outline color="000080" />
				<font color="000000" name="Arial" size="8" />
				<position>1116 984 1253 1008</position>
			</node>
			<node id="age_12_17">
				<name>age_12_17</name>
				<interior color="e5f6f7" />
				<outline color="000080" />
				<font color="000000" name="Arial" size="8" />
				<position>1106 912 1243 936</position>
			</node>
			<node id="age_65_74">
				<name>age_65_74</name>
				<interior color="e5f6f7" />
				<outline color="000080" />
				<font color="000000" name="Arial" size="8" />
				<position>838 1116 975 1140</position>
			</node>
			<node id="age_75_over">
				<name>age_75_over</name>
				<interior color="e5f6f7" />
				<outline color="000080" />
				<font color="000000" name="Arial" size="8" />
				<position>758 1052 895 1076</position>
			</node>
			<node id="gender_male">
				<name>gender_male</name>
				<interior color="e5f6f7" />
				<outline color="000080" />
				<font color="000000" name="Arial" size="8" />
				<position>58 787 189 822</position>
			</node>
			<node id="gender_female">
				<name>gender_female</name>
				<interior color="e5f6f7" />
				<outline color="000080" />
				<font color="000000" name="Arial" size="8" />
				<position>36 907 167 942</position>
			</node>
			<node id="education_primary">
				<name>education_primary</name>
				<interior color="e5f6f7" />
				<outline color="000080" />
				<font color="000000" name="Arial" size="8" />
				<position>582 661 724 687</position>
			</node>
			<node id="education_secondary">
				<name>education_secondary</name>
				<interior color="e5f6f7" />
				<outline color="000080" />
				<font color="000000" name="Arial" size="8" />
				<position>727 695 888 721</position>
			</node>
			<node id="education_higher">
				<name>education_higher</name>
				<interior color="e5f6f7" />
				<outline color="000080" />
				<font color="000000" name="Arial" size="8" />
				<position>641 771 775 797</position>
			</node>
			<node id="income_low">
				<name>income_low</name>
				<interior color="e5f6f7" />
				<outline color="000080" />
				<font color="000000" name="Arial" size="8" />
				<position>382 794 485 819</position>
			</node>
			<node id="income_high">
				<name>income_high</name>
				<interior color="e5f6f7" />
				<outline color="000080" />
				<font color="000000" name="Arial" size="8" />
				<position>371 954 474 979</position>
			</node>
			<node id="income_medium">
				<name>income_medium</name>
				<interior color="e5f6f7" />
				<outline color="000080" />
				<font color="000000" name="Arial" size="8" />
				<position>220 848 347 873</position>
			</node>
			<node id="geo_location_domestic">
				<name>geo_location_domestic</name>
				<interior color="e5f6f7" />
				<outline color="000080" />
				<font color="000000" name="Arial" size="8" />
				<position>557 1198 707 1228</position>
			</node>
			<node id="geo_location_foreign_rural">
				<name>geo_location_foreign_rural</name>
				<interior color="e5f6f7" />
				<outline color="000080" />
				<font color="000000" name="Arial" size="8" />
				<position>536 1079 744 1109</position>
			</node>
			<node id="geo_location_foreign_urban">
				<name>geo_location_foreign_urban</name>
				<interior color="e5f6f7" />
				<outline color="000080" />
				<font color="000000" name="Arial" size="8" />
				<position>523 1138 745 1168</position>
			</node>
			<node id="geo_location_foreign">
				<name>geo_location_foreign</name>
				<interior color="e5f6f7" />
				<outline color="000080" />
				<font color="000000" name="Arial" size="8" />
				<position>525 1108 743 1138</position>
			</node>
			<node id="geo_location_domestic_rural">
				<name>geo_location_domestic_rural</name>
				<interior color="e5f6f7" />
				<outline color="000080" />
				<font color="000000" name="Arial" size="8" />
				<position>530 1047 747 1077</position>
			</node>
			<node id="geo_location_domestic_urban">
				<name>geo_location_domestic_urban</name>
				<interior color="e5f6f7" />
				<outline color="000080" />
				<font color="000000" name="Arial" size="8" />
				<position>527 1168 741 1198</position>
			</node>
			<node id="type_international">
				<name>type_international</name>
				<interior color="e5f6f7" />
				<outline color="000080" />
				<font color="000000" name="Arial" size="8" />
				<position>213 384 412 424</position>
			</node>
			<node id="type_national">
				<name>type_national</name>
				<interior color="e5f6f7" />
				<outline color="000080" />
				<font color="000000" name="Arial" size="8" />
				<position>205 433 404 473</position>
			</node>
			<node id="type_municipality">
				<name>type_municipality</name>
				<interior color="e5f6f7" />
				<outline color="000080" />
				<font color="000000" name="Arial" size="8" />
				<position>196 477 395 517</position>
			</node>
			<node id="type_ngo">
				<name>type_ngo</name>
				<interior color="e5f6f7" />
				<outline color="000080" />
				<font color="000000" name="Arial" size="8" />
				<position>192 521 391 561</position>
			</node>
			<node id="product_type">
				<name>product_type</name>
				<interior color="e5f6f7" />
				<outline color="000080" />
				<font color="000000" name="Arial" size="8" />
				<position>1992 970 2093 1011</position>
			</node>
			<node id="price_level">
				<name>price_level</name>
				<interior color="e5f6f7" />
				<outline color="000080" />
				<font color="000000" name="Arial" size="8" />
				<position>2062 1026 2148 1066</position>
			</node>
			<node id="income_source_non_time_limited_usage">
				<name>income_source_non_time_limited_usage</name>
				<interior color="e5f6f7" />
				<outline color="000080" />
				<font color="000000" name="Arial" size="8" />
				<position>1996 800 2231 834</position>
			</node>
			<node id="income_source_additional_functions">
				<name>income_source_additional_functions</name>
				<interior color="e5f6f7" />
				<outline color="000080" />
				<font color="000000" name="Arial" size="8" />
				<position>1980 755 2241 793</position>
			</node>
			<node id="income_source_paid_plans">
				<name>income_source_paid_plans</name>
				<interior color="e5f6f7" />
				<outline color="000080" />
				<font color="000000" name="Arial" size="8" />
				<position>2005 880 2221 908</position>
			</node>
			<node id="income_source_different_price_for_business">
				<name>income_source_different_price_for_business</name>
				<interior color="e5f6f7" />
				<outline color="000080" />
				<font color="000000" name="Arial" size="8" />
				<position>2503 1064 2730 1095</position>
			</node>
			<node id="income_source_different_price_for_individuals">
				<name>income_source_different_price_for_individuals</name>
				<interior color="e5f6f7" />
				<outline color="000080" />
				<font color="000000" name="Arial" size="8" />
				<position>2124 953 2449 990</position>
			</node>
			<node id="income_source_fees_come_from_another_product">
				<name>income_source_fees_come_from_another_product</name>
				<interior color="e5f6f7" />
				<outline color="000080" />
				<font color="000000" name="Arial" size="8" />
				<position>2124 1079 2442 1115</position>
			</node>
			<node id="income_source_other">
				<name>income_source_other</name>
				<interior color="e5f6f7" />
				<outline color="000080" />
				<font color="000000" name="Arial" size="8" />
				<position>1999 841 2211 868</position>
			</node>
			<node id="product_features_is_a_fundamentally_new_product_or_serivce">
				<name>product_features_is_a_fundamentally_new_product_or_serivce</name>
				<interior color="e5f6f7" />
